{"learner":{"attributes":{"scikit_learn":"{\"_estimator_type\": \"regressor\"}"},"feature_names":["Signal_Strength_dBm","Latency_ms","Required_Bandwidth_Mbps","Resource_Allocation_Pct","App_Emergency_Service","App_File_Download","App_IoT_Temperature","App_Online_Gaming","App_Streaming","App_Video_Call","App_Video_Streaming","App_VoIP_Call","App_Voice_Call","App_Web_Browsing"],"feature_types":["float","float","float","float","int","int","int","int","int","int","int","int","int","int"],"gradient_booster":{"model":{"gbtree_model_param":{"num_parallel_tree":"1","num_trees":"150"},"iteration_indptr":[0,1,2,3,4,5,6,7,8,9,10,11,12,13,14,15,16,17,18,19,20,21,22,23,24,25,26,27,28,29,30,31,32,33,34,35,36,37,38,39,40,41,42,43,44,45,46,47,48,49,50,51,52,53,54,55,56,57,58,59,60,61,62,63,64,65,66,67,68,69,70,71,72,73,74,75,76,77,78,79,80,81,82,83,84,85,86,87,88,89,90,91,92,93,94,95,96,97,98,99,100,101,102,103,104,105,106,107,108,109,110,111,112,113,114,115,116,117,118,119,120,121,122,123,124,125,126,127,128,129,130,131,132,133,134,135,136,137,138,139,140,141,142,143,144,145,146,147,148,149,150],"tree_info":[0,0,0,0,0,0,0,0,0,0,0,0,0,0,0,0,0,0,0,0,0,0,0,0,0,0,0,0,0,0,0,0,0,0,0,0,0,0,0,0,0,0,0,0,0,0,0,0,0,0,0,0,0,0,0,0,0,0,0,0,0,0,0,0,0,0,0,0,0,0,0,0,0,0,0,0,0,0,0,0,0,0,0,0,0,0,0,0,0,0,0,0,0,0,0,0,0,0,0,0,0,0,0,0,0,0,0,0,0,0,0,0,0,0,0,0,0,0,0,0,0,0,0,0,0,0,0,0,0,0,0,0,0,0,0,0,0,0,0,0,0,0,0,0,0,0,0,0,0,0],"trees":[{"base_weights":[9.209939E-8,-1.6646144E0,9.739766E-1,-2.994158E0,4.8337653E-1,-3.1729636E-1,-1.9296347E0,-2.828964E-1,1.3805286E0,-2.0776606E-1,-1.20989464E-1,-6.724616E-1,1.5851143E-1,9.071744E-1,2.0215335E-1,-8.425151E-2,-3.7219416E-2,1.4097611E-3,3.8041484E-2,5.8364928E-2,9.802626E-2],"categories":[],"categories_nodes":[],"categories_segments":[],"categories_sizes":[],"default_left":[0,0,0,0,0,0,0,0,0,0,0,0,0,0,0,0,0,0,0,0,0],"id":0,"left_children":[1,3,-1,5,7,-1,9,11,13,-1,-1,15,17,19,-1,-1,-1,-1,-1,-1,-1],"loss_changes":[5.220572E3,7.868055E2,0E0,2.6235596E1,7.3261665E1,0E0,3.6284637E-1,1.0080107E1,1.3033806E1,0E0,0E0,1.2693291E0,8.9192265E-1,1.3724709E-1,0E0,0E0,0E0,0E0,0E0,0E0,0E0],"parents":[2147483647,0,0,1,1,3,3,4,4,6,6,7,7,8,8,11,11,12,12,13,13],"right_children":[2,4,-1,6,8,-1,10,12,14,-1,-1,16,18,20,-1,-1,-1,-1,-1,-1,-1],"split_conditions":[1E1,1.9E0,9.739766E-1,9E-1,3.8E0,-3.1729636E-1,1.6E0,3E0,4.6E0,-2.0776606E-1,-1.20989464E-1,2.6E0,3.5E0,4E0,2.0215335E-1,-8.425151E-2,-3.7219416E-2,1.4097611E-3,3.8041484E-2,5.8364928E-2,9.802626E-2],"split_indices":[2,2,0,2,2,0,2,2,2,0,0,2,2,2,0,0,0,0,0,0,0],"split_type":[0,0,0,0,0,0,0,0,0,0,0,0,0,0,0,0,0,0,0,0,0],"sum_hessian":[3.2E2,2.74E2,4.6E1,1.69E2,1.05E2,1.43E2,2.6E1,5.7E1,4.8E1,2E1,6E0,3E1,2.7E1,2.9E1,1.9E1,1.8E1,1.2E1,1.7E1,1E1,7E0,2.2E1],"tree_param":{"num_deleted":"0","num_feature":"14","num_nodes":"21","size_leaf_vector":"1"}},{"base_weights":[1.8829835E-3,-1.4994968E0,8.7865114E-1,-2.6802723E0,4.6774256E-1,-2.8502803E0,-1.6617002E0,-2.2490409E-1,1.2497929E0,-3.0588853E-1,-2.5731578E-1,-1.9427936E-1,-1.2619142E-1,-5.733988E-1,1.4406921E-1,8.822151E-1,1.9527839E-1,-6.904825E-2,-2.8189177E-2,-5.770735E-3,2.7802506E-2,6.7229E-2,1.1033007E-1],"categories":[],"categories_nodes":[],"categories_segments":[],"categories_sizes":[],"default_left":[0,0,0,0,0,0,0,0,0,0,0,0,0,0,0,0,0,0,0,0,0,0,0],"id":1,"left_children":[1,3,-1,5,7,9,11,13,15,-1,-1,-1,-1,17,19,21,-1,-1,-1,-1,-1,-1,-1],"loss_changes":[4.246865E3,6.4004236E2,0E0,2.5048218E1,5.661628E1,5.690918E-1,5.825424E-1,7.2833843E0,1.0939018E1,0E0,0E0,0E0,0E0,7.9514885E-1,7.728604E-1,8.362503E-1,0E0,0E0,0E0,0E0,0E0,0E0,0E0],"parents":[2147483647,0,0,1,1,3,3,4,4,5,5,6,6,7,7,8,8,13,13,14,14,15,15],"right_children":[2,4,-1,6,8,10,12,14,16,-1,-1,-1,-1,18,20,22,-1,-1,-1,-1,-1,-1,-1],"split_conditions":[1E1,2E0,8.7865114E-1,1E0,3.8E0,4.3E-1,1.4E0,3E0,4.9E0,-3.0588853E-1,-2.5731578E-1,-1.9427936E-1,-1.2619142E-1,2.7E0,3.3E0,4.2E0,1.9527839E-1,-6.904825E-2,-2.8189177E-2,-5.770735E-3,2.7802506E-2,6.7229E-2,1.1033007E-1],"split_indices":[2,2,0,2,2,2,2,2,2,0,0,0,0,2,2,2,0,0,0,0,0,0,0],"split_type":[0,0,0,0,0,0,0,0,0,0,0,0,0,0,0,0,0,0,0,0,0,0,0],"sum_hessian":[3.2E2,2.74E2,4.6E1,1.71E2,1.03E2,1.45E2,2.6E1,5.5E1,4.8E1,7.7E1,6.8E1,1.3E1,1.3E1,2.8E1,2.7E1,3.3E1,1.5E1,1.9E1,9E0,1.1E1,1.6E1,1.9E1,1.4E1],"tree_param":{"num_deleted":"0","num_feature":"14","num_nodes":"23","size_leaf_vector":"1"}},{"base_weights":[2.606299E-3,-1.3516781E0,7.926556E-1,-2.4340448E0,3.9694464E-1,-2.596924E-1,-1.6791545E0,-2.6782566E-1,1.0924335E0,-1.8812723E-1,-1.16867565E-1,-5.992819E-1,5.000688E-2,7.824263E-1,1.8049562E-1,-7.25586E-2,-3.809363E-2,-9.459691E-3,2.1169644E-2,5.863603E-2,1.0153697E-1],"categories":[],"categories_nodes":[],"categories_segments":[],"categories_sizes":[],"default_left":[0,0,0,0,0,0,0,0,0,0,0,0,0,0,0,0,0,0,0,0,0],"id":2,"left_children":[1,3,-1,5,7,-1,9,11,13,-1,-1,15,17,19,-1,-1,-1,-1,-1,-1,-1],"loss_changes":[3.4554553E3,5.214452E2,0E0,1.6541931E1,4.930065E1,0E0,1.2062302E0,5.824085E0,1.0073887E1,0E0,0E0,4.682026E-1,6.9807255E-1,1.140173E0,0E0,0E0,0E0,0E0,0E0,0E0,0E0],"parents":[2147483647,0,0,1,1,3,3,4,4,6,6,7,7,8,8,11,11,12,12,13,13],"right_children":[2,4,-1,6,8,-1,10,12,14,-1,-1,16,18,20,-1,-1,-1,-1,-1,-1,-1],"split_conditions":[1E1,1.9E0,7.926556E-1,8E-1,3.7E0,-2.596924E-1,1.4E0,2.9E0,5E0,-1.8812723E-1,-1.16867565E-1,2.5E0,3.3E0,4.2E0,1.8049562E-1,-7.25586E-2,-3.809363E-2,-9.459691E-3,2.1169644E-2,5.863603E-2,1.0153697E-1],"split_indices":[2,2,0,2,2,0,2,2,2,0,0,2,2,2,0,0,0,0,0,0,0],"split_type":[0,0,0,0,0,0,0,0,0,0,0,0,0,0,0,0,0,0,0,0,0],"sum_hessian":[3.2E2,2.74E2,4.6E1,1.69E2,1.05E2,1.37E2,3.2E1,5.4E1,5.1E1,2.1E1,1.1E1,2.6E1,2.8E1,3.7E1,1.4E1,1.5E1,1.1E1,1.5E1,1.3E1,2.2E1,1.5E1],"tree_param":{"num_deleted":"0","num_feature":"14","num_nodes":"21","size_leaf_vector":"1"}},{"base_weights":[3.808911E-3,-1.2176847E0,7.150765E-1,-2.1792479E0,3.8430128E-1,-2.3151176E0,-1.3638322E0,-1.5414609E-1,1.0665642E0,-2.5402927E-1,-2.1030597E-1,-1.5095483E-1,-9.046729E-2,-4.7113168E-1,1.4736125E-1,7.6607955E-1,1.6364937E-1,-5.926096E-2,-2.7603505E-2,5.749596E-4,3.189076E-2,5.988688E-2,9.643977E-2],"categories":[],"categories_nodes":[],"categories_segments":[],"categories_sizes":[],"default_left":[0,0,0,0,0,0,0,0,0,0,0,0,0,0,0,0,0,0,0,0,0,0,0],"id":3,"left_children":[1,3,-1,5,7,9,11,13,15,-1,-1,-1,-1,17,19,21,-1,-1,-1,-1,-1,-1,-1],"loss_changes":[2.811025E3,4.244504E2,0E0,1.5898499E1,3.837012E1,1.6291504E0,4.4083786E-1,5.7082615E0,6.62405E0,0E0,0E0,0E0,0E0,5.237174E-1,7.512483E-1,4.8360252E-1,0E0,0E0,0E0,0E0,0E0,0E0,0E0],"parents":[2147483647,0,0,1,1,3,3,4,4,5,5,6,6,7,7,8,8,13,13,14,14,15,15],"right_children":[2,4,-1,6,8,10,12,14,16,-1,-1,-1,-1,18,20,22,-1,-1,-1,-1,-1,-1,-1],"split_conditions":[1E1,2E0,7.150765E-1,1E0,3.9E0,3.6E-1,1.6E0,3E0,5E0,-2.5402927E-1,-2.1030597E-1,-1.5095483E-1,-9.046729E-2,2.6E0,3.5E0,4.3E0,1.6364937E-1,-5.926096E-2,-2.7603505E-2,5.749596E-4,3.189076E-2,5.988688E-2,9.643977E-2],"split_indices":[2,2,0,2,2,2,2,2,2,0,0,0,0,2,2,2,0,0,0,0,0,0,0],"split_type":[0,0,0,0,0,0,0,0,0,0,0,0,0,0,0,0,0,0,0,0,0,0,0],"sum_hessian":[3.2E2,2.74E2,4.6E1,1.71E2,1.03E2,1.45E2,2.6E1,5.8E1,4.5E1,6.5E1,8E1,1.8E1,8E0,2.8E1,3E1,3.1E1,1.4E1,1.6E1,1.2E1,1.7E1,1.3E1,1.9E1,1.2E1],"tree_param":{"num_deleted":"0","num_feature":"14","num_nodes":"23","size_leaf_vector":"1"}},{"base_weights":[4.2843586E-3,-1.0975169E0,6.450903E0,-1.9654263E0,3.4842467E-1,5.2927285E-1,7.182785E-1,-2.1323712E-1,-1.4150014E0,-1.3965361E-1,9.668637E-1,-9.69914E-2,-1.6188014E-1,-4.2701393E-1,1.3367231E-1,6.943568E-1,1.483754E-1,-5.147463E-2,-2.0884776E-2,5.206479E-4,2.8929463E-2,5.419762E-2,8.753764E-2],"categories":[],"categories_nodes":[],"categories_segments":[],"categories_sizes":[],"default_left":[0,0,0,0,0,0,0,0,0,0,0,0,0,0,0,0,0,0,0,0,0,0,0],"id":4,"left_children":[1,3,5,7,9,-1,-1,-1,11,13,15,-1,-1,17,19,21,-1,-1,-1,-1,-1,-1,-1],"loss_changes":[2.2871086E3,3.45795E2,1.8227539E0,1.2787903E1,3.1527075E1,0E0,0E0,0E0,2.3303833E0,4.6911182E0,5.449131E0,0E0,0E0,4.4756317E-1,6.182504E-1,4.0825176E-1,0E0,0E0,0E0,0E0,0E0,0E0,0E0],"parents":[2147483647,0,0,1,1,2,2,3,3,4,4,8,8,9,9,10,10,13,13,14,14,15,15],"right_children":[2,4,6,8,10,-1,-1,-1,12,14,16,-1,-1,18,20,22,-1,-1,-1,-1,-1,-1,-1],"split_conditions":[1E1,2E0,1.19E1,7E-1,3.9E0,5.2927285E-1,7.182785E-1,-2.1323712E-1,-1.03E2,3E0,5E0,-9.69914E-2,-1.6188014E-1,2.7E0,3.5E0,4.3E0,1.483754E-1,-5.147463E-2,-2.0884776E-2,5.206479E-4,2.8929463E-2,5.419762E-2,8.753764E-2],"split_indices":[2,2,2,2,2,0,0,0,0,2,2,0,0,2,2,2,0,0,0,0,0,0,0],"split_type":[0,0,0,0,0,0,0,0,0,0,0,0,0,0,0,0,0,0,0,0,0,0,0],"sum_hessian":[3.2E2,2.74E2,4.6E1,1.71E2,1.03E2,2.1E1,2.5E1,1.29E2,4.2E1,5.8E1,4.5E1,1.5E1,2.7E1,2.8E1,3E1,3.1E1,1.4E1,1.9E1,9E0,1.7E1,1.3E1,1.9E1,1.2E1],"tree_param":{"num_deleted":"0","num_feature":"14","num_nodes":"23","size_leaf_vector":"1"}},{"base_weights":[7.0416816E-3,-9.8858315E-1,5.8323565E0,-1.7716285E0,3.159591E-1,4.8210916E-1,6.5294254E-1,-1.8506165E0,-8.8583276E-2,-1.2641557E-1,8.7648404E-1,-2.0365034E-1,-1.6257042E-1,-3.549303E-1,1.5756229E-1,6.731452E-1,1.4622763E-1,-4.5163713E-2,-1.4805697E-2,4.143856E-3,2.6243156E-2,4.9048852E-2,8.484386E-2],"categories":[],"categories_nodes":[],"categories_segments":[],"categories_sizes":[],"default_left":[0,0,0,0,0,0,0,0,0,0,0,0,0,0,0,0,0,0,0,0,0,0,0],"id":5,"left_children":[1,3,5,7,9,-1,-1,11,-1,13,15,-1,-1,17,19,21,-1,-1,-1,-1,-1,-1,-1],"loss_changes":[1.8675105E3,2.814766E2,1.6523438E0,1.039502E1,2.589885E1,0E0,0E0,3.2531128E0,0E0,3.8846176E0,4.494934E0,0E0,0E0,5.933323E-1,3.179261E-1,7.3651695E-1,0E0,0E0,0E0,0E0,0E0,0E0,0E0],"parents":[2147483647,0,0,1,1,2,2,3,3,4,4,7,7,9,9,10,10,13,13,14,14,15,15],"right_children":[2,4,6,8,10,-1,-1,12,-1,14,16,-1,-1,18,20,22,-1,-1,-1,-1,-1,-1,-1],"split_conditions":[1E1,2E0,1.2E1,1.3E0,3.9E0,4.8210916E-1,6.5294254E-1,4.8E-1,-8.8583276E-2,3.1E0,3.7E1,-2.0365034E-1,-1.6257042E-1,2.8E0,3.5E0,4.3E0,1.4622763E-1,-4.5163713E-2,-1.4805697E-2,4.143856E-3,2.6243156E-2,4.9048852E-2,8.484386E-2],"split_indices":[2,2,2,2,2,0,0,2,0,2,1,0,0,2,2,2,0,0,0,0,0,0,0],"split_type":[0,0,0,0,0,0,0,0,0,0,0,0,0,0,0,0,0,0,0,0,0,0,0],"sum_hessian":[3.2E2,2.74E2,4.6E1,1.71E2,1.03E2,2.2E1,2.4E1,1.56E2,1.5E1,5.8E1,4.5E1,8.1E1,7.5E1,3.2E1,2.6E1,3.5E1,1E1,2.1E1,1.1E1,1.3E1,1.3E1,1.9E1,1.6E1],"tree_param":{"num_deleted":"0","num_feature":"14","num_nodes":"23","size_leaf_vector":"1"}},{"base_weights":[9.237178E-3,-8.9046764E-1,5.273271E0,-1.619375E0,2.5163335E-1,4.478008E-1,6.0446435E-1,-1.7929247E-1,-1.3239963E0,-1.9776116E-1,7.3939973E-1,-8.282602E-2,-1.4080843E-1,-4.4751877E-1,1.1346936E-2,4.5673475E-1,1.1040913E0,-5.8423877E-2,-3.2555383E-2,-1.1818054E-2,1.1865612E-2,3.0423626E-2,5.1486563E-2,8.4084295E-2,1.3909121E-1],"categories":[],"categories_nodes":[],"categories_segments":[],"categories_sizes":[],"default_left":[0,0,0,0,0,0,0,0,0,0,0,0,0,0,0,0,0,0,0,0,0,0,0,0,0],"id":6,"left_children":[1,3,5,7,9,-1,-1,-1,11,13,15,-1,-1,17,19,21,23,-1,-1,-1,-1,-1,-1,-1,-1],"loss_changes":[1.5249763E3,2.293411E2,1.763916E0,6.238312E0,2.3819775E1,0E0,0E0,0E0,1.5849762E0,2.9819791E0,4.8561707E0,0E0,0E0,2.4334955E-1,4.5880648E-1,1.1817074E-1,4.9157333E-1,0E0,0E0,0E0,0E0,0E0,0E0,0E0,0E0],"parents":[2147483647,0,0,1,1,2,2,3,3,4,4,8,8,9,9,10,10,13,13,14,14,15,15,16,16],"right_children":[2,4,6,8,10,-1,-1,-1,12,14,16,-1,-1,18,20,22,24,-1,-1,-1,-1,-1,-1,-1,-1],"split_conditions":[1E1,1.8E0,3.2E1,5.9E-1,3.7E0,4.478008E-1,6.0446435E-1,-1.7929247E-1,-1.05E2,2.8E0,4.5E0,-8.282602E-2,-1.4080843E-1,-1E2,3.2E0,4E0,3.9E1,-5.8423877E-2,-3.2555383E-2,-1.1818054E-2,1.1865612E-2,3.0423626E-2,5.1486563E-2,8.4084295E-2,1.3909121E-1],"split_indices":[2,2,1,2,2,0,0,0,0,2,2,0,0,0,2,2,1,0,0,0,0,0,0,0,0],"split_type":[0,0,0,0,0,0,0,0,0,0,0,0,0,0,0,0,0,0,0,0,0,0,0,0,0],"sum_hessian":[3.2E2,2.74E2,4.6E1,1.67E2,1.07E2,2.6E1,2E1,1.02E2,6.5E1,5.6E1,5.1E1,1.1E1,5.4E1,2.5E1,3.1E1,3E1,2.1E1,1E1,1.5E1,1.4E1,1.7E1,1E1,2E1,1.3E1,8E0],"tree_param":{"num_deleted":"0","num_feature":"14","num_nodes":"25","size_leaf_vector":"1"}},{"base_weights":[1.100345E-2,-8.0210733E-1,4.7683325E0,-1.4498734E0,2.4432994E-1,3.8608703E-1,5.2975315E-1,-1.5659044E0,-1.0589721E0,-1.4173366E-1,6.9631684E-1,-1.7120692E-1,-1.4050941E-1,-7.324353E-2,-1.1800944E-1,-3.6613512E-1,5.203425E-2,4.4955528E-1,1.0316434E0,-4.7732722E-2,-2.4535967E-2,-6.361121E-3,1.578162E-2,3.5875242E-2,5.7378273E-2,7.462906E-2,1.2423672E-1],"categories":[],"categories_nodes":[],"categories_segments":[],"categories_sizes":[],"default_left":[0,0,0,0,0,0,0,0,0,0,0,0,0,0,0,0,0,0,0,0,0,0,0,0,0,0,0],"id":7,"left_children":[1,3,5,7,9,-1,-1,11,13,15,17,-1,-1,-1,-1,19,21,23,25,-1,-1,-1,-1,-1,-1,-1,-1],"loss_changes":[1.2455283E3,1.8676204E2,2.1176758E0,6.0523987E0,1.8595236E1,0E0,0E0,6.2649536E-1,7.967949E-1,2.540996E0,3.5907593E0,0E0,0E0,0E0,0E0,2.4547386E-1,4.0150133E-1,1.3256025E-1,2.7544594E-1,0E0,0E0,0E0,0E0,0E0,0E0,0E0,0E0],"parents":[2147483647,0,0,1,1,2,2,3,3,4,4,7,7,8,8,9,9,10,10,15,15,16,16,17,17,18,18],"right_children":[2,4,6,8,10,-1,-1,12,14,16,18,-1,-1,-1,-1,20,22,24,26,-1,-1,-1,-1,-1,-1,-1,-1],"split_conditions":[1E1,1.9E0,1.18E1,6.9E-1,3.8E0,3.8608703E-1,5.2975315E-1,3E-1,-1.04E2,2.9E0,4.6E0,-1.7120692E-1,-1.4050941E-1,-7.324353E-2,-1.1800944E-1,2.4E0,3.3E0,8.5E-1,3.8E1,-4.7732722E-2,-2.4535967E-2,-6.361121E-3,1.578162E-2,3.5875242E-2,5.7378273E-2,7.462906E-2,1.2423672E-1],"split_indices":[2,2,2,2,2,0,0,2,0,2,2,0,0,0,0,2,2,3,1,0,0,0,0,0,0,0,0],"split_type":[0,0,0,0,0,0,0,0,0,0,0,0,0,0,0,0,0,0,0,0,0,0,0,0,0,0,0],"sum_hessian":[3.2E2,2.74E2,4.6E1,1.69E2,1.05E2,2E1,2.6E1,1.28E2,4.1E1,5.7E1,4.8E1,6.2E1,6.6E1,1.3E1,2.8E1,2.6E1,3.1E1,2.9E1,1.9E1,1.2E1,1.4E1,1.5E1,1.6E1,1.9E1,1E1,1E1,9E0],"tree_param":{"num_deleted":"0","num_feature":"14","num_nodes":"27","size_leaf_vector":"1"}},{"base_weights":[1.1903552E-2,-7.2289187E-1,4.310985E0,-1.2989901E0,2.3683688E-1,3.5920393E-1,4.905014E-1,-1.3954698E0,-8.814704E-1,-6.9998376E-2,6.914508E-1,-1.5435798E-1,-1.2543331E-1,-1.0088503E-1,-6.1833974E-2,-2.6547906E-1,1.4035197E-1,5.278696E-1,1.1044641E-1,-3.934184E-2,-1.6264753E-2,2.8064575E-3,2.1988926E-2,3.911271E-2,6.5676935E-2],"categories":[],"categories_nodes":[],"categories_segments":[],"categories_sizes":[],"default_left":[0,0,0,0,0,0,0,0,0,0,0,0,0,0,0,0,0,0,0,0,0,0,0,0,0],"id":8,"left_children":[1,3,5,7,9,-1,-1,11,13,15,17,-1,-1,-1,-1,19,21,23,-1,-1,-1,-1,-1,-1,-1],"loss_changes":[1.0171379E3,1.5235458E2,2.4534912E0,5.698456E0,1.4555524E1,0E0,0E0,9.485779E-1,5.4930305E-1,2.6277843E0,2.2545567E0,0E0,0E0,0E0,0E0,3.701663E-1,2.7069104E-1,3.0715466E-1,0E0,0E0,0E0,0E0,0E0,0E0,0E0],"parents":[2147483647,0,0,1,1,2,2,3,3,4,4,7,7,8,8,9,9,10,10,15,15,16,16,17,17],"right_children":[2,4,6,8,10,-1,-1,12,14,16,18,-1,-1,-1,-1,20,22,24,-1,-1,-1,-1,-1,-1,-1],"split_conditions":[1E1,2E0,3.1E1,8E-1,4E0,3.5920393E-1,4.905014E-1,3E-1,1.4E0,3.1E0,3.7E1,-1.5435798E-1,-1.2543331E-1,-1.0088503E-1,-6.1833974E-2,2.5E0,3.5E0,4.4E0,1.1044641E-1,-3.934184E-2,-1.6264753E-2,2.8064575E-3,2.1988926E-2,3.911271E-2,6.5676935E-2],"split_indices":[2,2,1,2,2,0,0,2,2,2,1,0,0,0,0,2,2,2,0,0,0,0,0,0,0],"split_type":[0,0,0,0,0,0,0,0,0,0,0,0,0,0,0,0,0,0,0,0,0,0,0,0,0],"sum_hessian":[3.2E2,2.74E2,4.6E1,1.71E2,1.03E2,2.4E1,2.2E1,1.37E2,3.4E1,6.2E1,4.1E1,6.2E1,7.5E1,2.1E1,1.3E1,3.2E1,3E1,3.1E1,1E1,1.3E1,1.9E1,1.3E1,1.7E1,1.7E1,1.4E1],"tree_param":{"num_deleted":"0","num_feature":"14","num_nodes":"25","size_leaf_vector":"1"}},{"base_weights":[1.2556225E-2,-6.515412E-1,3.8979652E0,-1.1881027E0,1.891429E-1,3.3706406E-1,4.6302658E-1,-1.32183E-1,-9.770761E-1,-1.4746732E-1,5.544821E-1,-6.187525E-2,-1.0343659E-1,-3.340325E-1,8.725256E-3,3.3978942E-1,8.317999E-1,-4.3915015E-2,-2.4088714E-2,-8.621219E-3,8.735506E-3,2.679095E-2,4.4612475E-2,6.400057E-2,1.0874393E-1],"categories":[],"categories_nodes":[],"categories_segments":[],"categories_sizes":[],"default_left":[0,0,0,0,0,0,0,0,0,0,0,0,0,0,0,0,0,0,0,0,0,0,0,0,0],"id":9,"left_children":[1,3,5,7,9,-1,-1,-1,11,13,15,-1,-1,17,19,21,23,-1,-1,-1,-1,-1,-1,-1,-1],"loss_changes":[8.308128E2,1.2427138E2,2.5425415E0,3.4494324E0,1.3363275E1,0E0,0E0,0E0,7.7643585E-1,1.6639004E0,2.813345E0,0E0,0E0,1.4878583E-1,2.4640828E-1,1.17423534E-1,3.826971E-1,0E0,0E0,0E0,0E0,0E0,0E0,0E0,0E0],"parents":[2147483647,0,0,1,1,2,2,3,3,4,4,8,8,9,9,10,10,13,13,14,14,15,15,16,16],"right_children":[2,4,6,8,10,-1,-1,-1,12,14,16,-1,-1,18,20,22,24,-1,-1,-1,-1,-1,-1,-1,-1],"split_conditions":[1E1,1.8E0,-5.5E1,5.6E-1,3.7E0,3.3706406E-1,4.6302658E-1,-1.32183E-1,-1.05E2,2.8E0,4.5E0,-6.187525E-2,-1.0343659E-1,-1E2,3.2E0,8.5E-1,4E1,-4.3915015E-2,-2.4088714E-2,-8.621219E-3,8.735506E-3,2.679095E-2,4.4612475E-2,6.400057E-2,1.0874393E-1],"split_indices":[2,2,0,2,2,0,0,0,0,2,2,0,0,0,2,3,1,0,0,0,0,0,0,0,0],"split_type":[0,0,0,0,0,0,0,0,0,0,0,0,0,0,0,0,0,0,0,0,0,0,0,0,0],"sum_hessian":[3.2E2,2.74E2,4.6E1,1.67E2,1.07E2,3E1,1.6E1,9.9E1,6.8E1,5.6E1,5.1E1,1.1E1,5.7E1,2.5E1,3.1E1,3E1,2.1E1,1E1,1.5E1,1.4E1,1.7E1,2E1,1E1,1.4E1,7E0],"tree_param":{"num_deleted":"0","num_feature":"14","num_nodes":"25","size_leaf_vector":"1"}},{"base_weights":[1.3415392E-2,-5.8682793E-1,3.525192E0,-1.0710633E0,1.7186059E-1,2.7931654E-1,3.9221683E-1,-1.2575485E-1,-9.4421136E-1,-1.5767911E-1,4.8067746E-1,-9.83286E-1,-5.626982E-2,-3.0324483E-1,-1.6879532E-2,2.7232718E-1,7.281387E-1,-9.8818235E-2,-2.6641322E-2,-3.9922737E-2,-2.1830406E-2,-7.816573E-3,4.998992E-3,1.9224344E-2,3.2393437E-2,5.7028677E-2,9.9228814E-2],"categories":[],"categories_nodes":[],"categories_segments":[],"categories_sizes":[],"default_left":[0,0,0,0,0,0,0,0,0,0,0,0,0,0,0,0,0,0,0,0,0,0,0,0,0,0,0],"id":10,"left_children":[1,3,5,7,9,-1,-1,-1,11,13,15,17,-1,19,21,23,25,-1,-1,-1,-1,-1,-1,-1,-1,-1,-1],"loss_changes":[6.787111E2,1.0121463E2,2.7028198E0,2.7868042E0,1.1066673E1,0E0,0E0,0E0,9.970856E-1,1.0811478E0,2.6889906E0,6.317139E-2,0E0,1.2482071E-1,1.1865637E-1,6.9978476E-2,4.765234E-1,0E0,0E0,0E0,0E0,0E0,0E0,0E0,0E0,0E0,0E0],"parents":[2147483647,0,0,1,1,2,2,3,3,4,4,8,8,9,9,10,10,11,11,13,13,14,14,15,15,16,16],"right_children":[2,4,6,8,10,-1,-1,-1,12,14,16,18,-1,20,22,24,26,-1,-1,-1,-1,-1,-1,-1,-1,-1,-1],"split_conditions":[1E1,1.8E0,1.16E1,3.5E-1,3.6E0,2.7931654E-1,3.9221683E-1,-1.2575485E-1,1.3E0,2.8E0,4.4E0,8.5E-1,-5.626982E-2,-1E2,3.2E0,4E0,4E1,-9.8818235E-2,-2.6641322E-2,-3.9922737E-2,-2.1830406E-2,-7.816573E-3,4.998992E-3,1.9224344E-2,3.2393437E-2,5.7028677E-2,9.9228814E-2],"split_indices":[2,2,2,2,2,0,0,0,2,2,2,3,0,0,2,2,1,0,0,0,0,0,0,0,0,0,0],"split_type":[0,0,0,0,0,0,0,0,0,0,0,0,0,0,0,0,0,0,0,0,0,0,0,0,0,0,0],"sum_hessian":[3.2E2,2.74E2,4.6E1,1.67E2,1.07E2,1.9E1,2.7E1,6.4E1,1.03E2,5.2E1,5.5E1,9.2E1,1.1E1,2.5E1,2.7E1,3.1E1,2.4E1,9.1E1,1E0,1E1,1.5E1,1.4E1,1.3E1,1.4E1,1.7E1,1.7E1,7E0],"tree_param":{"num_deleted":"0","num_feature":"14","num_nodes":"27","size_leaf_vector":"1"}},{"base_weights":[1.3654365E-2,-5.3549135E-1,3.1480768E0,-9.6578723E-1,1.4511797E-1,2.7061813E0,3.8627315E-1,-1.0456362E0,-7.312828E-1,-1.4312953E-1,4.2024523E-1,2.749483E-1,6.602645E-2,-1.1378284E-1,-9.332797E-2,-5.033613E-2,-7.885335E-2,-2.8614393E-1,-2.3947025E-2,2.4670753E-1,6.341186E-1,-3.62934E-2,-2.0537004E-2,2.4919224E-3,-1.10617755E-2,1.9771414E-2,3.347216E-2,4.953576E-2,8.1034735E-2],"categories":[],"categories_nodes":[],"categories_segments":[],"categories_sizes":[],"default_left":[0,0,0,0,0,0,0,0,0,0,0,0,0,0,0,0,0,0,0,0,0,0,0,0,0,0,0,0,0],"id":11,"left_children":[1,3,5,7,9,11,-1,13,15,17,19,-1,-1,-1,-1,-1,-1,21,23,25,27,-1,-1,-1,-1,-1,-1,-1,-1],"loss_changes":[5.542085E2,8.038471E1,4.705261E0,2.3811493E0,8.545757E0,1.108139E0,0E0,2.121582E-1,2.0332336E-1,8.965229E-1,1.8848877E0,0E0,0E0,0E0,0E0,0E0,0E0,7.432735E-2,1.2981471E-1,7.180822E-2,1.8547726E-1,0E0,0E0,0E0,0E0,0E0,0E0,0E0,0E0],"parents":[2147483647,0,0,1,1,2,2,3,3,4,4,5,5,7,7,8,8,9,9,10,10,17,17,18,18,19,19,20,20],"right_children":[2,4,6,8,10,12,-1,14,16,18,20,-1,-1,-1,-1,-1,-1,22,24,26,28,-1,-1,-1,-1,-1,-1,-1,-1],"split_conditions":[6.2E0,1.8E0,1.28E1,6.5E-1,3.6E0,-5.4E1,3.8627315E-1,3E-1,-1.05E2,2.7E0,4.4E0,2.749483E-1,6.602645E-2,-1.1378284E-1,-9.332797E-2,-5.033613E-2,-7.885335E-2,-1E2,-8.1E1,8.5E-1,3.8E1,-3.62934E-2,-2.0537004E-2,2.4919224E-3,-1.10617755E-2,1.9771414E-2,3.347216E-2,4.953576E-2,8.1034735E-2],"split_indices":[2,2,2,2,2,0,0,2,0,2,2,0,0,0,0,0,0,0,0,3,1,0,0,0,0,0,0,0,0],"split_type":[0,0,0,0,0,0,0,0,0,0,0,0,0,0,0,0,0,0,0,0,0,0,0,0,0,0,0,0,0],"sum_hessian":[3.2E2,2.73E2,4.7E1,1.67E2,1.06E2,3.2E1,1.5E1,1.22E2,4.5E1,5.2E1,5.4E1,3.1E1,1E0,6.2E1,6E1,1.1E1,3.4E1,2.3E1,2.9E1,3.1E1,2.3E1,1E1,1.3E1,1.9E1,1E1,2.2E1,9E0,1.5E1,8E0],"tree_param":{"num_deleted":"0","num_feature":"14","num_nodes":"29","size_leaf_vector":"1"}},{"base_weights":[1.3875738E-2,-4.8273742E-1,2.8484201E0,-8.712103E-1,1.3171282E-1,2.1902242E0,3.204127E-1,-9.7356275E-2,-7.176645E-1,-8.57908E-2,4.3329096E-1,2.2394727E-1,6.272512E-2,-4.5721985E-2,-7.5779235E-1,-2.2009254E-1,5.9943013E-2,3.161211E-1,6.701585E-2,-7.6339334E-2,-2.1366585E-2,-2.9193519E-2,-1.2551381E-2,-1.0716533E-3,1.1876362E-2,2.217178E-2,4.083303E-2],"categories":[],"categories_nodes":[],"categories_segments":[],"categories_sizes":[],"default_left":[0,0,0,0,0,0,0,0,0,0,0,0,0,0,0,0,0,0,0,0,0,0,0,0,0,0,0],"id":12,"left_children":[1,3,5,7,9,11,-1,-1,13,15,17,-1,-1,-1,19,21,23,25,-1,-1,-1,-1,-1,-1,-1,-1,-1],"loss_changes":[4.5323776E2,6.551779E1,4.2202454E0,1.9415588E0,7.0557666E0,1.3477325E-1,0E0,0E0,3.9554596E-1,1.2462482E0,1.0370665E0,0E0,0E0,0E0,1.9748688E-2,1.8758595E-1,1.3011609E-1,1.8802094E-1,0E0,0E0,0E0,0E0,0E0,0E0,0E0,0E0,0E0],"parents":[2147483647,0,0,1,1,2,2,3,3,4,4,5,5,8,8,9,9,10,10,14,14,15,15,16,16,17,17],"right_children":[2,4,6,8,10,12,-1,-1,14,16,18,-1,-1,-1,20,22,24,26,-1,-1,-1,-1,-1,-1,-1,-1,-1],"split_conditions":[6.2E0,1.8E0,1.15E1,5.3E-1,3.9E0,-6.5E1,3.204127E-1,-9.7356275E-2,-1.05E2,3E0,5E0,2.2394727E-1,6.272512E-2,-4.5721985E-2,8.5E-1,2.5E0,3.4E0,3.1E1,6.701585E-2,-7.6339334E-2,-2.1366585E-2,-2.9193519E-2,-1.2551381E-2,-1.0716533E-3,1.1876362E-2,2.217178E-2,4.083303E-2],"split_indices":[2,2,2,2,2,0,0,0,0,2,2,0,0,0,3,2,2,1,0,0,0,0,0,0,0,0,0],"split_type":[0,0,0,0,0,0,0,0,0,0,0,0,0,0,0,0,0,0,0,0,0,0,0,0,0,0,0],"sum_hessian":[3.2E2,2.73E2,4.7E1,1.67E2,1.06E2,1.9E1,2.8E1,9.7E1,7E1,6.2E1,4.4E1,1.8E1,1E0,1.1E1,5.9E1,3.2E1,3E1,3.1E1,1.3E1,5.8E1,1E0,1.7E1,1.5E1,1.4E1,1.6E1,1.7E1,1.4E1],"tree_param":{"num_deleted":"0","num_feature":"14","num_nodes":"27","size_leaf_vector":"1"}},{"base_weights":[1.3937952E-2,-4.4050264E-1,2.5455368E0,-7.749732E-1,1.2782519E-1,2.1756606E0,3.238879E-1,-8.429075E-1,-5.51568E-1,-6.046875E-2,3.774051E-1,2.238905E-1,7.54752E-2,-9.315925E-2,-7.510034E-2,-6.0857803E-2,-3.535772E-2,-1.6592498E-1,7.066179E-2,2.3065095E-1,5.013698E-1,-2.4506573E-2,-1.0223022E-2,3.2192399E-3,1.5800256E-2,1.3342755E-2,2.587705E-2,1.7751424E-2,5.237601E-2],"categories":[],"categories_nodes":[],"categories_segments":[],"categories_sizes":[],"default_left":[0,0,0,0,0,0,0,0,0,0,0,0,0,0,0,0,0,0,0,0,0,0,0,0,0,0,0,0,0],"id":13,"left_children":[1,3,5,7,9,11,-1,13,15,17,19,-1,-1,-1,-1,-1,-1,21,23,25,27,-1,-1,-1,-1,-1,-1,-1,-1],"loss_changes":[3.704194E2,5.199334E1,5.519409E0,2.1455002E0,4.8162484E0,1.4554443E0,0E0,3.5993958E-1,2.701826E-1,8.2760805E-1,6.8482065E-1,0E0,0E0,0E0,0E0,0E0,0E0,1.4129496E-1,8.563207E-2,2.5618196E-2,7.3803425E-2,0E0,0E0,0E0,0E0,0E0,0E0,0E0,0E0],"parents":[2147483647,0,0,1,1,2,2,3,3,4,4,5,5,7,7,8,8,9,9,10,10,17,17,18,18,19,19,20,20],"right_children":[2,4,6,8,10,12,-1,14,16,18,20,-1,-1,-1,-1,-1,-1,22,24,26,28,-1,-1,-1,-1,-1,-1,-1,-1],"split_conditions":[6.1E0,2E0,1.3E1,7E-1,3.9E0,-5.3E1,3.238879E-1,2E-1,1.5E0,3.1E0,4.4E0,2.238905E-1,7.54752E-2,-9.315925E-2,-7.510034E-2,-6.0857803E-2,-3.535772E-2,2.5E0,8.5E-1,-8.8E1,3E1,-2.4506573E-2,-1.0223022E-2,3.2192399E-3,1.5800256E-2,1.3342755E-2,2.587705E-2,1.7751424E-2,5.237601E-2],"split_indices":[2,2,2,2,2,0,0,2,2,2,2,0,0,0,0,0,0,2,3,0,1,0,0,0,0,0,0,0,0],"split_type":[0,0,0,0,0,0,0,0,0,0,0,0,0,0,0,0,0,0,0,0,0,0,0,0,0,0,0,0,0],"sum_hessian":[3.2E2,2.72E2,4.8E1,1.71E2,1.01E2,3.4E1,1.4E1,1.29E2,4.2E1,5.8E1,4.3E1,3.2E1,2E0,6.1E1,6.8E1,3.1E1,1.1E1,3.2E1,2.6E1,2.1E1,2.2E1,1.3E1,1.9E1,1.9E1,7E0,6E0,1.5E1,2E0,2E1],"tree_param":{"num_deleted":"0","num_feature":"14","num_nodes":"29","size_leaf_vector":"1"}},{"base_weights":[1.395358E-2,-3.9707816E-1,2.3037028E0,-6.80406E-1,1.4968868E-1,1.9666481E0,2.9365838E-1,-7.369635E-1,-3.605042E-1,1.4098425E-2,3.9989796E-1,2.0217994E-1,7.044352E-2,-8.386467E-2,-6.575968E-1,-4.1811727E-2,-2.2821772E-1,-8.793695E-2,1.18970476E-1,3.1810609E-1,5.5620868E-2,-6.611079E-2,-1.7255366E-2,-2.5703942E-2,2.9999733E-3,-1.2460797E-2,-6.600662E-4,8.409776E-3,1.9487072E-2,2.4525134E-2,3.9557762E-2],"categories":[],"categories_nodes":[],"categories_segments":[],"categories_sizes":[],"default_left":[0,0,0,0,0,0,0,0,0,0,0,0,0,0,0,0,0,0,0,0,0,0,0,0,0,0,0,0,0,0,0],"id":14,"left_children":[1,3,5,7,9,11,-1,13,15,17,19,-1,-1,-1,21,-1,23,25,27,29,-1,-1,-1,-1,-1,-1,-1,-1,-1,-1,-1],"loss_changes":[3.0302698E2,4.2393436E1,4.677246E0,2.9910355E0,3.1834002E0,1.0122223E0,0E0,6.7518616E-1,1.2559938E-1,6.739028E-1,2.4497032E-1,0E0,0E0,0E0,3.919983E-2,0E0,8.9576125E-2,9.46234E-2,6.566411E-2,3.8444042E-2,0E0,0E0,0E0,0E0,0E0,0E0,0E0,0E0,0E0,0E0,0E0],"parents":[2147483647,0,0,1,1,2,2,3,3,4,4,5,5,7,7,8,8,9,9,10,10,14,14,16,16,17,17,18,18,19,19],"right_children":[2,4,6,8,10,12,-1,14,16,18,20,-1,-1,-1,22,-1,24,26,28,30,-1,-1,-1,-1,-1,-1,-1,-1,-1,-1,-1],"split_conditions":[6.1E0,2.3E0,1.3E1,1.1E0,4.1E0,-5.3E1,2.9365838E-1,3E-1,8.5E-1,3.3E0,3.6E1,2.0217994E-1,7.044352E-2,-8.386467E-2,7.5E-1,-4.1811727E-2,-1E2,1E0,8.5E-1,8.5E-1,5.5620868E-2,-6.611079E-2,-1.7255366E-2,-2.5703942E-2,2.9999733E-3,-1.2460797E-2,-6.600662E-4,8.409776E-3,1.9487072E-2,2.4525134E-2,3.9557762E-2],"split_indices":[2,2,2,2,2,0,0,2,3,2,1,0,0,0,3,0,0,8,3,3,0,0,0,0,0,0,0,0,0,0,0],"split_type":[0,0,0,0,0,0,0,0,0,0,0,0,0,0,0,0,0,0,0,0,0,0,0,0,0,0,0,0,0,0,0],"sum_hessian":[3.2E2,2.72E2,4.8E1,1.79E2,9.3E1,3.4E1,1.4E1,1.51E2,2.8E1,6.1E1,3.2E1,3.2E1,2E0,6.2E1,8.9E1,1.8E1,1E1,3.1E1,3E1,2.3E1,9E0,8.8E1,1E0,9E0,1E0,2.1E1,1E1,2.2E1,8E0,1.4E1,9E0],"tree_param":{"num_deleted":"0","num_feature":"14","num_nodes":"31","size_leaf_vector":"1"}},{"base_weights":[1.4019329E-2,-3.6222005E-1,2.060481E0,-6.4376205E-1,7.794999E-2,1.5312074E0,2.3909481E-1,-7.496587E-2,-5.645223E-1,-1.03738084E-1,2.6502347E-1,1.6236664E-1,7.092252E-2,-5.852706E-1,-3.6532488E-2,-1.9434954E-1,-9.421689E-3,1.5983649E-1,3.8546455E-1,-5.882294E-2,-1.6392602E-2,-2.634928E-2,-1.4129815E-2,2.7147317E-3,-7.7960636E-3,5.6615113E-3,1.735392E-2,1.5743172E-2,4.1054394E-2],"categories":[],"categories_nodes":[],"categories_segments":[],"categories_sizes":[],"default_left":[0,0,0,0,0,0,0,0,0,0,0,0,0,0,0,0,0,0,0,0,0,0,0,0,0,0,0,0,0],"id":15,"left_children":[1,3,5,7,9,11,-1,-1,13,15,17,-1,-1,19,-1,21,23,25,27,-1,-1,-1,-1,-1,-1,-1,-1,-1,-1],"loss_changes":[2.4790337E2,3.3758156E1,5.0843353E0,9.697418E-1,3.664318E0,5.204468E-1,0E0,0E0,1.9535446E-1,4.6820688E-1,6.0983706E-1,0E0,0E0,1.32808685E-2,0E0,6.547701E-2,7.229565E-2,3.2607436E-2,7.2621346E-2,0E0,0E0,0E0,0E0,0E0,0E0,0E0,0E0,0E0,0E0],"parents":[2147483647,0,0,1,1,2,2,3,3,4,4,5,5,8,8,9,9,10,10,13,13,15,15,16,16,17,17,18,18],"right_children":[2,4,6,8,10,12,-1,-1,14,16,18,-1,-1,20,-1,22,24,26,28,-1,-1,-1,-1,-1,-1,-1,-1,-1,-1],"split_conditions":[6E0,1.7E0,1.15E1,3.9E-1,3.6E0,-6.5E1,2.3909481E-1,-7.496587E-2,1.2E0,2.8E0,4.3E0,1.6236664E-1,7.092252E-2,7.5E-1,-3.6532488E-2,-1.01E2,-8.1E1,2.4E1,3E1,-5.882294E-2,-1.6392602E-2,-2.634928E-2,-1.4129815E-2,2.7147317E-3,-7.7960636E-3,5.6615113E-3,1.735392E-2,1.5743172E-2,4.1054394E-2],"split_indices":[2,2,2,2,2,0,0,0,2,2,2,0,0,3,0,0,0,1,1,0,0,0,0,0,0,0,0,0,0],"split_type":[0,0,0,0,0,0,0,0,0,0,0,0,0,0,0,0,0,0,0,0,0,0,0,0,0,0,0,0,0],"sum_hessian":[3.2E2,2.71E2,4.9E1,1.65E2,1.06E2,2.1E1,2.8E1,6.7E1,9.8E1,5.4E1,5.2E1,1.8E1,3E0,8.7E1,1.1E1,2.7E1,2.7E1,2.9E1,2.3E1,8.6E1,1E0,1E1,1.7E1,1.8E1,9E0,4E0,2.5E1,3E0,2E1],"tree_param":{"num_deleted":"0","num_feature":"14","num_nodes":"29","size_leaf_vector":"1"}},{"base_weights":[1.3614062E-2,-3.2655853E-1,1.8638808E0,-5.805106E-1,7.047514E-2,1.582903E0,2.4733305E-1,-6.9270365E-2,-5.186789E-1,-1.0380555E-1,2.3104873E-1,7.588085E-2,1.659799E-1,-5.3887643E-2,-3.5348956E-2,-1.9218531E-1,-3.258755E-2,1.2774666E-1,3.3727145E-1,-2.3481091E-2,-1.24338195E-2,5.831444E-4,-9.947777E-3,4.279844E-3,1.4302437E-2,1.704399E-2,3.6744043E-2],"categories":[],"categories_nodes":[],"categories_segments":[],"categories_sizes":[],"default_left":[0,0,0,0,0,0,0,0,0,0,0,0,0,0,0,0,0,0,0,0,0,0,0,0,0,0,0],"id":16,"left_children":[1,3,5,7,9,11,-1,-1,13,15,17,-1,-1,-1,-1,19,21,23,25,-1,-1,-1,-1,-1,-1,-1,-1],"loss_changes":[2.0264928E2,2.7465996E1,4.647049E0,7.9226685E-1,3.018366E0,1.0852051E0,0E0,0E0,1.7985725E-1,3.2103705E-1,5.71404E-1,0E0,0E0,0E0,0E0,3.7320614E-2,7.7675745E-2,3.281319E-2,7.326841E-2,0E0,0E0,0E0,0E0,0E0,0E0,0E0,0E0],"parents":[2147483647,0,0,1,1,2,2,3,3,4,4,5,5,8,8,9,9,10,10,15,15,16,16,17,17,18,18],"right_children":[2,4,6,8,10,12,-1,-1,14,16,18,-1,-1,-1,-1,20,22,24,26,-1,-1,-1,-1,-1,-1,-1,-1],"split_conditions":[6E0,1.7E0,1.31E1,1.55E-1,3.5E0,1.02E1,2.4733305E-1,-6.9270365E-2,1.1E0,2.6E0,4.2E0,7.588085E-2,1.659799E-1,-5.3887643E-2,-3.5348956E-2,8.5E-1,-8.1E1,2.4E1,3E1,-2.3481091E-2,-1.24338195E-2,5.831444E-4,-9.947777E-3,4.279844E-3,1.4302437E-2,1.704399E-2,3.6744043E-2],"split_indices":[2,2,2,2,2,2,0,0,2,2,2,0,0,0,0,3,0,1,1,0,0,0,0,0,0,0,0],"split_type":[0,0,0,0,0,0,0,0,0,0,0,0,0,0,0,0,0,0,0,0,0,0,0,0,0,0,0],"sum_hessian":[3.2E2,2.71E2,4.9E1,1.65E2,1.06E2,3.6E1,1.3E1,5.5E1,1.1E2,5.1E1,5.5E1,4E0,3.2E1,9.6E1,1.4E1,2.2E1,2.9E1,2.9E1,2.6E1,1.2E1,1E1,1.9E1,1E1,5E0,2.4E1,5E0,2.1E1],"tree_param":{"num_deleted":"0","num_feature":"14","num_nodes":"27","size_leaf_vector":"1"}},{"base_weights":[1.3367197E-2,-2.9438585E-1,1.6872764E0,-4.9949104E-1,1.0575741E-1,1.4412833E0,2.2765422E-1,-5.6267923E-1,-3.4565094E-1,1.0302466E-2,2.8739643E-1,1.4963508E-1,5.9912264E-2,-6.338241E-2,-5.0917383E-2,-3.8486037E-1,-1.7307876E-1,-7.680536E-2,7.9694375E-2,2.4356753E-1,4.3672714E-2,-4.0493123E-2,-2.4392506E-2,-1.9640984E-2,4.1781547E-3,-1.0893191E-2,-8.084392E-4,4.9864687E-3,1.4928213E-2,1.451335E-2,2.6478041E-2],"categories":[],"categories_nodes":[],"categories_segments":[],"categories_sizes":[],"default_left":[0,0,0,0,0,0,0,0,0,0,0,0,0,0,0,0,0,0,0,0,0,0,0,0,0,0,0,0,0,0,0],"id":17,"left_children":[1,3,5,7,9,11,-1,13,15,17,19,-1,-1,-1,-1,21,23,25,27,29,-1,-1,-1,-1,-1,-1,-1,-1,-1,-1,-1],"loss_changes":[1.6586006E2,2.2376259E1,3.966629E0,1.5552711E0,1.6095052E0,8.6577606E-1,0E0,1.5690613E-1,3.0554342E-1,3.808848E-1,1.030674E-1,0E0,0E0,0E0,0E0,2.5690079E-2,6.83614E-2,6.093684E-2,6.520842E-2,1.7949462E-2,0E0,0E0,0E0,0E0,0E0,0E0,0E0,0E0,0E0,0E0,0E0],"parents":[2147483647,0,0,1,1,2,2,3,3,4,4,5,5,7,7,8,8,9,9,10,10,15,15,16,16,17,17,18,18,19,19],"right_children":[2,4,6,8,10,12,-1,14,16,18,20,-1,-1,-1,-1,22,24,26,28,30,-1,-1,-1,-1,-1,-1,-1,-1,-1,-1,-1],"split_conditions":[6E0,2.3E0,1.32E1,6.7E-1,4.1E0,-5E1,2.2765422E-1,1.2E-1,8.5E-1,3.2E0,3.9E1,1.4963508E-1,5.9912264E-2,-6.338241E-2,-5.0917383E-2,1.7E0,1E0,1E0,8.5E-1,2.9E1,4.3672714E-2,-4.0493123E-2,-2.4392506E-2,-1.9640984E-2,4.1781547E-3,-1.0893191E-2,-8.084392E-4,4.9864687E-3,1.4928213E-2,1.451335E-2,2.6478041E-2],"split_indices":[2,2,2,2,2,0,0,2,3,2,1,0,0,0,0,2,7,8,3,1,0,0,0,0,0,0,0,0,0,0,0],"split_type":[0,0,0,0,0,0,0,0,0,0,0,0,0,0,0,0,0,0,0,0,0,0,0,0,0,0,0,0,0,0,0],"sum_hessian":[3.2E2,2.71E2,4.9E1,1.79E2,9.2E1,3.7E1,1.2E1,1.25E2,5.4E1,6.1E1,3.1E1,3.4E1,3E0,4.9E1,7.6E1,4.3E1,1.1E1,2.7E1,3.4E1,2.6E1,5E0,3.6E1,7E0,1E1,1E0,1.8E1,9E0,2.5E1,9E0,6E0,2E1],"tree_param":{"num_deleted":"0","num_feature":"14","num_nodes":"31","size_leaf_vector":"1"}},{"base_weights":[1.3075412E-2,-2.6867318E-1,1.5099537E0,-4.506233E-1,9.0236574E-2,1.0791613E0,1.7755364E-1,-4.8493344E-1,-2.2875042E-1,-5.831632E-3,2.2690801E-1,1.16009906E-1,5.7195302E-2,-5.6949504E-2,-4.3798983E-2,-2.6879549E-2,-1.4970754E-1,-7.72048E-2,5.1915493E-2,1.6287938E-1,2.890021E-2,-1.7261682E-2,3.969252E-3,-4.263815E-3,-1.3391906E-2,2.6587164E-3,1.1087505E-2,6.7218686E-3,1.8143374E-2],"categories":[],"categories_nodes":[],"categories_segments":[],"categories_sizes":[],"default_left":[0,0,0,0,0,0,0,0,0,0,0,0,0,0,0,0,0,0,0,0,0,0,0,0,0,0,0,0,0],"id":18,"left_children":[1,3,5,7,9,11,-1,13,15,17,19,-1,-1,-1,-1,-1,21,23,25,27,-1,-1,-1,-1,-1,-1,-1,-1,-1],"loss_changes":[1.357853E2,1.773796E1,3.918869E0,1.2593193E0,1.209263E0,2.3962784E-1,0E0,3.6585617E-1,4.205644E-2,2.3069586E-1,1.0400784E-1,0E0,0E0,0E0,0E0,0E0,5.4580748E-2,4.3300495E-2,4.334589E-2,2.50777E-2,0E0,0E0,0E0,0E0,0E0,0E0,0E0,0E0,0E0],"parents":[2147483647,0,0,1,1,2,2,3,3,4,4,5,5,7,7,8,8,9,9,10,10,16,16,17,17,18,18,19,19],"right_children":[2,4,6,8,10,12,-1,14,16,18,20,-1,-1,-1,-1,-1,22,24,26,28,-1,-1,-1,-1,-1,-1,-1,-1,-1],"split_conditions":[5.9E0,2.3E0,1.13E1,1.2E0,4E0,-6.5E1,1.7755364E-1,1.45E-1,8.5E-1,3.1E0,4.5E0,1.16009906E-1,5.7195302E-2,-5.6949504E-2,-4.3798983E-2,-2.6879549E-2,-1E2,-8.1E1,8.5E-1,-8.9E1,2.890021E-2,-1.7261682E-2,3.969252E-3,-4.263815E-3,-1.3391906E-2,2.6587164E-3,1.1087505E-2,6.7218686E-3,1.8143374E-2],"split_indices":[2,2,2,2,2,0,0,2,3,2,2,0,0,0,0,0,0,0,3,0,0,0,0,0,0,0,0,0,0],"split_type":[0,0,0,0,0,0,0,0,0,0,0,0,0,0,0,0,0,0,0,0,0,0,0,0,0,0,0,0,0],"sum_hessian":[3.2E2,2.7E2,5E1,1.79E2,9.1E1,2.1E1,2.9E1,1.54E2,2.5E1,5.4E1,3.7E1,1.7E1,4E0,5.1E1,1.03E2,1.5E1,1E1,2.4E1,3E1,2E1,1.7E1,9E0,1E0,1.6E1,8E0,2.2E1,8E0,4E0,1.6E1],"tree_param":{"num_deleted":"0","num_feature":"14","num_nodes":"29","size_leaf_vector":"1"}},{"base_weights":[1.2576962E-2,-2.4214186E-1,1.3658363E0,-4.2585832E-1,4.7849383E-2,1.1609035E0,1.935126E-1,-4.77636E-2,-3.480255E-1,-8.615934E-2,1.6023865E-1,5.7656117E-2,1.2279078E0,-3.583429E-2,-1.7824976E-2,-1.3855833E-1,-2.5803804E-2,9.279767E-2,2.3967382E-1,6.306267E-2,1.2846336E-1,-1.8313445E-2,-9.925234E-3,-8.086684E-3,1.2625138E-3,7.0362682E-3,1.44806225E-2,1.23241665E-2,2.6152713E-2],"categories":[],"categories_nodes":[],"categories_segments":[],"categories_sizes":[],"default_left":[0,0,0,0,0,0,0,0,0,0,0,0,0,0,0,0,0,0,0,0,0,0,0,0,0,0,0,0,0],"id":19,"left_children":[1,3,5,7,9,11,-1,-1,13,15,17,-1,19,-1,-1,21,23,25,27,-1,-1,-1,-1,-1,-1,-1,-1,-1,-1],"loss_changes":[1.1097962E2,1.4458216E1,3.7034836E0,5.027504E-1,1.6102872E0,8.581734E-1,0E0,0E0,5.8740616E-2,1.5139058E-1,2.8847575E-1,0E0,3.7572098E-1,0E0,0E0,2.737829E-2,5.1805295E-2,2.8315812E-2,3.3923984E-2,0E0,0E0,0E0,0E0,0E0,0E0,0E0,0E0,0E0,0E0],"parents":[2147483647,0,0,1,1,2,2,3,3,4,4,5,5,8,8,9,9,10,10,12,12,15,15,16,16,17,17,18,18],"right_children":[2,4,6,8,10,12,-1,-1,14,16,18,-1,20,-1,-1,22,24,26,28,-1,-1,-1,-1,-1,-1,-1,-1,-1,-1],"split_conditions":[5.9E0,1.7E0,1.33E1,5.2E-1,3.4E0,1.02E1,1.935126E-1,-4.77636E-2,7.5E-1,2.7E0,4.2E0,5.7656117E-2,-8E1,-3.583429E-2,-1.7824976E-2,-1.01E2,3.5E1,8.5E-1,3E1,6.306267E-2,1.2846336E-1,-1.8313445E-2,-9.925234E-3,-8.086684E-3,1.2625138E-3,7.0362682E-3,1.44806225E-2,1.23241665E-2,2.6152713E-2],"split_indices":[2,2,2,2,2,2,0,0,3,2,2,0,0,0,0,0,1,3,1,0,0,0,0,0,0,0,0,0,0],"split_type":[0,0,0,0,0,0,0,0,0,0,0,0,0,0,0,0,0,0,0,0,0,0,0,0,0,0,0,0,0],"sum_hessian":[3.2E2,2.7E2,5E1,1.65E2,1.05E2,3.9E1,1.1E1,9.6E1,6.9E1,4.8E1,5.7E1,5E0,3.4E1,6.4E1,5E0,2.5E1,2.3E1,3.2E1,2.5E1,4E0,3E1,1E1,1.5E1,9E0,1.4E1,2.4E1,8E0,5E0,2E1],"tree_param":{"num_deleted":"0","num_feature":"14","num_nodes":"29","size_leaf_vector":"1"}},{"base_weights":[1.246004E-2,-2.1820992E-1,1.2379326E0,-3.6639577E-1,7.409073E-2,9.9728394E-1,1.6237174E-1,-4.152191E-1,-2.537556E-1,-1.911973E-2,1.7186874E-1,5.285142E-2,1.0598817E0,-4.7289673E-2,-3.751413E-2,-2.816795E-1,-1.2556762E-1,-7.339781E-2,2.2271676E-2,1.11617856E-1,2.2464709E-1,5.8017652E-2,1.1134274E-1,-1.9818345E-2,-3.0531982E-2,-1.4474112E-2,4.267049E-3,-1.0356476E-2,-1.1430919E-3,1.4366081E-4,7.417977E-3,5.92137E-3,1.3084382E-2,9.342516E-3,2.3965912E-2],"categories":[],"categories_nodes":[],"categories_segments":[],"categories_sizes":[],"default_left":[0,0,0,0,0,0,0,0,0,0,0,0,0,0,0,0,0,0,0,0,0,0,0,0,0,0,0,0,0,0,0,0,0,0,0],"id":20,"left_children":[1,3,5,7,9,11,-1,13,15,17,19,-1,21,-1,-1,23,25,27,29,31,33,-1,-1,-1,-1,-1,-1,-1,-1,-1,-1,-1,-1,-1,-1],"loss_changes":[9.1010315E1,1.1765463E1,3.1154556E0,8.8453865E-1,8.417681E-1,4.3753052E-1,0E0,1.09233856E-1,1.6866207E-1,1.09473705E-1,1.180228E-1,0E0,9.89151E-2,0E0,0E0,3.0288935E-2,4.488474E-2,3.8072556E-2,3.0175673E-2,1.5425235E-2,2.2917747E-2,0E0,0E0,0E0,0E0,0E0,0E0,0E0,0E0,0E0,0E0,0E0,0E0,0E0,0E0],"parents":[2147483647,0,0,1,1,2,2,3,3,4,4,5,5,7,7,8,8,9,9,10,10,12,12,15,15,16,16,17,17,18,18,19,19,20,20],"right_children":[2,4,6,8,10,12,-1,14,16,18,20,-1,22,-1,-1,24,26,28,30,32,34,-1,-1,-1,-1,-1,-1,-1,-1,-1,-1,-1,-1,-1,-1],"split_conditions":[5.9E0,2.3E0,1.26E1,6.6E-1,3.8E0,1.02E1,1.6237174E-1,1.05E-1,8.5E-1,3E0,4.3E0,5.285142E-2,-8E1,-4.7289673E-2,-3.751413E-2,-1E2,1E0,1E0,8.5E-1,-8.7E1,3E1,5.8017652E-2,1.1134274E-1,-1.9818345E-2,-3.0531982E-2,-1.4474112E-2,4.267049E-3,-1.0356476E-2,-1.1430919E-3,1.4366081E-4,7.417977E-3,5.92137E-3,1.3084382E-2,9.342516E-3,2.3965912E-2],"split_indices":[2,2,2,2,2,2,0,2,3,2,2,0,0,0,0,0,7,8,3,0,1,0,0,0,0,0,0,0,0,0,0,0,0,0,0],"split_type":[0,0,0,0,0,0,0,0,0,0,0,0,0,0,0,0,0,0,0,0,0,0,0,0,0,0,0,0,0,0,0,0,0,0,0],"sum_hessian":[3.2E2,2.7E2,5E1,1.79E2,9.1E1,3.3E1,1.7E1,1.23E2,5.6E1,4.7E1,4.4E1,5E0,2.8E1,4.6E1,7.7E1,4.5E1,1.1E1,2E1,2.7E1,2.2E1,2.2E1,4E0,2.4E1,1.2E1,3.3E1,1E1,1E0,1.3E1,7E0,2E1,7E0,7E0,1.5E1,3E0,1.9E1],"tree_param":{"num_deleted":"0","num_feature":"14","num_nodes":"35","size_leaf_vector":"1"}},{"base_weights":[1.2110009E-2,-1.99194E-1,1.1090325E0,-3.4642717E-1,3.5471715E-2,9.432875E-1,1.6410562E-1,-4.0677465E-2,-3.0040264E-1,-7.1247876E-2,1.265908E-1,4.8154593E-2,1.0068681E0,-3.0696252E-1,-1.4865755E-2,-1.0622951E-1,-1.04226945E-2,6.706299E-2,1.779304E-1,5.3376235E-2,1.0493263E-1,-3.1346824E-2,-1.8225392E-2,-1.38082E-2,-6.3048042E-3,-5.5530816E-3,2.0517947E-3,4.33184E-3,1.123773E-2,6.9645285E-3,1.8738262E-2],"categories":[],"categories_nodes":[],"categories_segments":[],"categories_sizes":[],"default_left":[0,0,0,0,0,0,0,0,0,0,0,0,0,0,0,0,0,0,0,0,0,0,0,0,0,0,0,0,0,0,0],"id":21,"left_children":[1,3,5,7,9,11,-1,-1,13,15,17,-1,19,21,-1,23,25,27,29,-1,-1,-1,-1,-1,-1,-1,-1,-1,-1,-1,-1],"loss_changes":[7.462362E1,9.340944E0,3.0373917E0,3.3886337E-1,1.0300595E0,7.4817276E-1,0E0,0E0,5.1919937E-2,1.0315326E-1,1.6226709E-1,0E0,1.630516E-1,1.8321991E-2,0E0,3.3932745E-2,2.7657188E-2,2.5259152E-2,1.765579E-2,0E0,0E0,0E0,0E0,0E0,0E0,0E0,0E0,0E0,0E0,0E0,0E0],"parents":[2147483647,0,0,1,1,2,2,3,3,4,4,5,5,8,8,9,9,10,10,12,12,13,13,15,15,16,16,17,17,18,18],"right_children":[2,4,6,8,10,12,-1,-1,14,16,18,-1,20,22,-1,24,26,28,30,-1,-1,-1,-1,-1,-1,-1,-1,-1,-1,-1,-1],"split_conditions":[5.8E0,1.7E0,1.34E1,4E-1,3.4E0,1.02E1,1.6410562E-1,-4.0677465E-2,7.5E-1,2.9E0,4.1E0,4.8154593E-2,-8E1,1E0,-1.4865755E-2,8.5E-1,3.5E1,3.4E1,2.8E1,5.3376235E-2,1.0493263E-1,-3.1346824E-2,-1.8225392E-2,-1.38082E-2,-6.3048042E-3,-5.5530816E-3,2.0517947E-3,4.33184E-3,1.123773E-2,6.9645285E-3,1.8738262E-2],"split_indices":[2,2,2,2,2,2,0,0,3,2,2,0,0,10,0,3,1,1,1,0,0,0,0,0,0,0,0,0,0,0,0],"split_type":[0,0,0,0,0,0,0,0,0,0,0,0,0,0,0,0,0,0,0,0,0,0,0,0,0,0,0,0,0,0,0],"sum_hessian":[3.2E2,2.69E2,5.1E1,1.65E2,1.04E2,4.1E1,1E1,6.8E1,9.7E1,4.8E1,5.6E1,6E0,3.5E1,9.2E1,5E0,3E1,1.8E1,2.7E1,2.9E1,4E0,3.1E1,8.6E1,6E0,1.6E1,1.4E1,7E0,1.1E1,1.9E1,8E0,3E0,2.6E1],"tree_param":{"num_deleted":"0","num_feature":"14","num_nodes":"31","size_leaf_vector":"1"}},{"base_weights":[1.1780948E-2,-1.7740135E-1,1.0168128E0,-2.9841727E-1,6.1297193E-2,8.645582E-1,1.4918695E-1,-3.398453E-1,-2.0989715E-1,-2.0256031E-2,1.3647632E-1,9.0406895E-1,3.992671E-2,-4.1147433E-2,-3.1591024E-2,-2.312467E-1,-1.0522842E-1,-6.647908E-2,7.5387214E-3,1.073032E-1,2.2484923E-2,4.910614E-2,9.3924984E-2,-1.6510485E-2,-2.4823582E-2,-1.2273815E-2,4.368937E-3,-9.403895E-3,-1.3673714E-3,3.6403418E-3,-2.5987984E-3,7.5961663E-3,1.5560572E-2],"categories":[],"categories_nodes":[],"categories_segments":[],"categories_sizes":[],"default_left":[0,0,0,0,0,0,0,0,0,0,0,0,0,0,0,0,0,0,0,0,0,0,0,0,0,0,0,0,0,0,0,0,0],"id":22,"left_children":[1,3,5,7,9,11,-1,13,15,17,19,21,-1,-1,-1,23,25,27,29,31,-1,-1,-1,-1,-1,-1,-1,-1,-1,-1,-1,-1,-1],"loss_changes":[6.1213474E1,7.846487E0,2.3989983E0,5.887661E-1,5.668257E-1,3.927784E-1,0E0,7.7459335E-2,1.0974407E-1,5.8315285E-2,9.962237E-2,7.637787E-2,0E0,0E0,0E0,1.4075756E-2,3.6652505E-2,2.3454383E-2,2.9010458E-2,4.5707166E-2,0E0,0E0,0E0,0E0,0E0,0E0,0E0,0E0,0E0,0E0,0E0,0E0,0E0],"parents":[2147483647,0,0,1,1,2,2,3,3,4,4,5,5,7,7,8,8,9,9,10,10,11,11,15,15,16,16,17,17,18,18,19,19],"right_children":[2,4,6,8,10,12,-1,14,16,18,20,22,-1,-1,-1,24,26,28,30,32,-1,-1,-1,-1,-1,-1,-1,-1,-1,-1,-1,-1,-1],"split_conditions":[5.9E0,2.3E0,1.34E1,6.4E-1,3.7E0,-4.8E1,1.4918695E-1,7E-2,8.5E-1,2.9E0,5E0,-8E1,3.992671E-2,-4.1147433E-2,-3.1591024E-2,-1E2,1E0,4.6E1,-8.6E1,8.5E-1,2.2484923E-2,4.910614E-2,9.3924984E-2,-1.6510485E-2,-2.4823582E-2,-1.2273815E-2,4.368937E-3,-9.403895E-3,-1.3673714E-3,3.6403418E-3,-2.5987984E-3,7.5961663E-3,1.5560572E-2],"split_indices":[2,2,2,2,2,0,0,2,3,2,2,0,0,0,0,0,7,1,0,3,0,0,0,0,0,0,0,0,0,0,0,0,0],"split_type":[0,0,0,0,0,0,0,0,0,0,0,0,0,0,0,0,0,0,0,0,0,0,0,0,0,0,0,0,0,0,0,0,0],"sum_hessian":[3.2E2,2.7E2,5E1,1.79E2,9.1E1,4E1,1E1,1.2E2,5.9E1,4.4E1,4.7E1,3.6E1,4E0,2.6E1,9.4E1,4.8E1,1.1E1,1.6E1,2.8E1,3.7E1,1E1,4E0,3.2E1,1.2E1,3.6E1,1E1,1E0,1E1,6E0,1.5E1,1.3E1,2.4E1,1.3E1],"tree_param":{"num_deleted":"0","num_feature":"14","num_nodes":"33","size_leaf_vector":"1"}},{"base_weights":[1.1369496E-2,-1.6202818E-1,9.114849E-1,-2.675045E-1,5.548552E-2,7.79544E-1,1.3876824E-1,-3.035979E-1,-1.8087295E-1,-7.0230017E-4,1.3447118E-1,4.0082537E-2,8.301247E-1,-3.5059582E-2,-2.7257938E-2,-2.0217156E-1,-9.487203E-2,-3.4538556E-2,4.162228E-2,1.0342949E-1,1.8382278E-1,4.5177612E-2,8.6229496E-2,-1.746105E-2,-2.611169E-2,-1.096955E-2,4.150486E-3,-8.081184E-3,-3.495505E-4,2.5718703E-3,7.657116E-3,7.6957205E-3,1.7443221E-2,1.2867701E-2,2.2671334E-2],"categories":[],"categories_nodes":[],"categories_segments":[],"categories_sizes":[],"default_left":[0,0,0,0,0,0,0,0,0,0,0,0,0,0,0,0,0,0,0,0,0,0,0,0,0,0,0,0,0,0,0,0,0,0,0],"id":23,"left_children":[1,3,5,7,9,11,-1,13,15,17,19,-1,21,-1,-1,23,25,27,29,31,33,-1,-1,-1,-1,-1,-1,-1,-1,-1,-1,-1,-1,-1,-1],"loss_changes":[5.02487E1,6.20933E0,2.185398E0,5.1417065E-1,3.9507923E-1,4.909649E-1,0E0,8.957577E-2,8.3394885E-2,7.733915E-2,3.766972E-2,0E0,6.0783386E-2,0E0,0E0,2.5888443E-2,3.0833438E-2,4.281144E-2,1.1370182E-2,3.3566296E-2,1.5752316E-3,0E0,0E0,0E0,0E0,0E0,0E0,0E0,0E0,0E0,0E0,0E0,0E0,0E0,0E0],"parents":[2147483647,0,0,1,1,2,2,3,3,4,4,5,5,7,7,8,8,9,9,10,10,12,12,15,15,16,16,17,17,18,18,19,19,20,20],"right_children":[2,4,6,8,10,12,-1,14,16,18,20,-1,22,-1,-1,24,26,28,30,32,34,-1,-1,-1,-1,-1,-1,-1,-1,-1,-1,-1,-1,-1,-1],"split_conditions":[5.8E0,2.4E0,1.35E1,6.8E-1,4E0,1.02E1,1.3876824E-1,1.05E-1,8.5E-1,3.3E0,1E0,4.0082537E-2,-8E1,-3.5059582E-2,-2.7257938E-2,1E0,1E0,3.5E1,8.5E-1,-5.2E1,4.5E0,4.5177612E-2,8.6229496E-2,-1.746105E-2,-2.611169E-2,-1.096955E-2,4.150486E-3,-8.081184E-3,-3.495505E-4,2.5718703E-3,7.657116E-3,7.6957205E-3,1.7443221E-2,1.2867701E-2,2.2671334E-2],"split_indices":[2,2,2,2,2,2,0,2,3,2,8,0,0,0,0,13,7,1,3,0,2,0,0,0,0,0,0,0,0,0,0,0,0,0,0],"split_type":[0,0,0,0,0,0,0,0,0,0,0,0,0,0,0,0,0,0,0,0,0,0,0,0,0,0,0,0,0,0,0,0,0,0,0],"sum_hessian":[3.2E2,2.69E2,5.1E1,1.81E2,8.8E1,4.2E1,9E0,1.26E2,5.5E1,5.2E1,3.6E1,6E0,3.6E1,4.6E1,8E1,4.3E1,1.2E1,2.9E1,2.3E1,2.4E1,1.2E1,4E0,3.2E1,3.2E1,1.1E1,1.1E1,1E0,1.1E1,1.8E1,1.7E1,6E0,1.9E1,5E0,7E0,5E0],"tree_param":{"num_deleted":"0","num_feature":"14","num_nodes":"35","size_leaf_vector":"1"}},{"base_weights":[1.1042611E-2,-1.4601141E-1,8.2630306E-1,-2.45513E-1,4.290129E-2,7.0557785E-1,1.262791E-1,-2.7740777E-1,-1.7702167E-1,-2.80724E-2,1.03292294E-1,3.664689E-2,7.5066394E-1,-3.4171414E-2,-2.5756497E-2,-1.8143341E-1,3.9429665E-3,-5.202524E-3,-7.194066E-2,5.58516E-2,1.3463905E-1,4.7213595E-2,7.8934245E-2,-1.3315444E-2,-2.0153971E-2,-2.6153035E-3,2.420607E-3,-1.1279474E-2,-3.217186E-3,3.772007E-3,8.93163E-3,1.0512741E-2,1.7605668E-2],"categories":[],"categories_nodes":[],"categories_segments":[],"categories_sizes":[],"default_left":[0,0,0,0,0,0,0,0,0,0,0,0,0,0,0,0,0,0,0,0,0,0,0,0,0,0,0,0,0,0,0,0,0],"id":24,"left_children":[1,3,5,7,9,11,-1,13,15,17,19,-1,21,-1,-1,23,-1,25,27,29,31,-1,-1,-1,-1,-1,-1,-1,-1,-1,-1,-1,-1],"loss_changes":[4.122147E1,5.0857534E0,1.8491478E0,3.3755207E-1,4.0579993E-1,3.8233566E-1,0E0,6.383228E-2,6.349456E-2,4.3769237E-2,6.832284E-2,0E0,2.5924683E-2,0E0,0E0,2.9465437E-2,0E0,1.9116813E-2,2.0741954E-2,9.979837E-3,1.816076E-2,0E0,0E0,0E0,0E0,0E0,0E0,0E0,0E0,0E0,0E0,0E0,0E0],"parents":[2147483647,0,0,1,1,2,2,3,3,4,4,5,5,7,7,8,8,9,9,10,10,12,12,15,15,17,17,18,18,19,19,20,20],"right_children":[2,4,6,8,10,12,-1,14,16,18,20,-1,22,-1,-1,24,-1,26,28,30,32,-1,-1,-1,-1,-1,-1,-1,-1,-1,-1,-1,-1],"split_conditions":[5.8E0,2.2E0,1.35E1,6.3E-1,3.6E0,1.02E1,1.262791E-1,6E-2,1E0,-8.1E1,4.1E0,3.664689E-2,-7.8E1,-3.4171414E-2,-2.5756497E-2,-1.01E2,3.9429665E-3,-9.2E1,-7.4E1,3.3E1,1E0,4.7213595E-2,7.8934245E-2,-1.3315444E-2,-2.0153971E-2,-2.6153035E-3,2.420607E-3,-1.1279474E-2,-3.217186E-3,3.772007E-3,8.93163E-3,1.0512741E-2,1.7605668E-2],"split_indices":[2,2,2,2,2,2,0,2,7,0,2,0,0,0,0,0,0,0,0,1,8,0,0,0,0,0,0,0,0,0,0,0,0],"split_type":[0,0,0,0,0,0,0,0,0,0,0,0,0,0,0,0,0,0,0,0,0,0,0,0,0,0,0,0,0,0,0,0,0],"sum_hessian":[3.2E2,2.69E2,5.1E1,1.76E2,9.3E1,4.2E1,9E0,1.18E2,5.8E1,4.3E1,5E1,6E0,3.6E1,2.4E1,9.4E1,5.7E1,1E0,2.9E1,1.4E1,2.1E1,2.9E1,6E0,3E1,1.9E1,3.8E1,1.7E1,1.2E1,6E0,8E0,1.5E1,6E0,1.9E1,1E1],"tree_param":{"num_deleted":"0","num_feature":"14","num_nodes":"33","size_leaf_vector":"1"}},{"base_weights":[1.0641584E-2,-1.2837124E-1,7.666585E-1,-2.1786857E-1,5.203411E-2,6.599606E-1,1.1793976E-1,-2.459176E-1,-1.4495833E-1,-3.407901E-4,1.21876046E-1,4.8973683E-2,7.275819E-2,-2.8677676E-2,-2.2012835E-2,-1.2043599E-1,-2.1870667E-2,-2.8300475E-2,3.4623016E-2,9.902884E-2,2.3103086E-2,-1.3564852E-2,-7.606583E-3,-6.7565464E-3,-2.0120396E-4,2.119247E-3,6.4212563E-3,7.204912E-3,1.4248758E-2],"categories":[],"categories_nodes":[],"categories_segments":[],"categories_sizes":[],"default_left":[0,0,0,0,0,0,0,0,0,0,0,0,0,0,0,0,0,0,0,0,0,0,0,0,0,0,0,0,0],"id":25,"left_children":[1,3,5,7,9,11,-1,13,15,17,19,-1,-1,-1,-1,21,-1,23,25,27,-1,-1,-1,-1,-1,-1,-1,-1,-1],"loss_changes":[3.3834248E1,4.402993E0,1.4235649E0,3.3655357E-1,3.329163E-1,1.271267E-1,0E0,7.385731E-2,6.950927E-2,5.279143E-2,7.438266E-2,0E0,0E0,0E0,0E0,1.8031001E-2,0E0,3.0830506E-2,8.176865E-3,2.959904E-2,0E0,0E0,0E0,0E0,0E0,0E0,0E0,0E0,0E0],"parents":[2147483647,0,0,1,1,2,2,3,3,4,4,5,5,7,7,8,8,9,9,10,10,15,15,17,17,18,18,19,19],"right_children":[2,4,6,8,10,12,-1,14,16,18,20,-1,-1,-1,-1,22,-1,24,26,28,-1,-1,-1,-1,-1,-1,-1,-1,-1],"split_conditions":[6E0,2.4E0,1.36E1,7E-1,4E0,1.1E1,1.1793976E-1,1.05E-1,1E0,3.3E0,3.9E1,4.8973683E-2,7.275819E-2,-2.8677676E-2,-2.2012835E-2,8.5E-1,-2.1870667E-2,3.5E1,8.5E-1,8.5E-1,2.3103086E-2,-1.3564852E-2,-7.606583E-3,-6.7565464E-3,-2.0120396E-4,2.119247E-3,6.4212563E-3,7.204912E-3,1.4248758E-2],"split_indices":[2,2,2,2,2,2,0,2,13,2,1,0,0,0,0,3,0,1,3,3,0,0,0,0,0,0,0,0,0],"split_type":[0,0,0,0,0,0,0,0,0,0,0,0,0,0,0,0,0,0,0,0,0,0,0,0,0,0,0,0,0],"sum_hessian":[3.2E2,2.71E2,4.9E1,1.81E2,9E1,4.1E1,8E0,1.29E2,5.2E1,5.2E1,3.8E1,1.4E1,2.7E1,4.6E1,8.3E1,4.1E1,1.1E1,2.9E1,2.3E1,3.3E1,5E0,2.9E1,1.2E1,1.1E1,1.8E1,1.7E1,6E0,2.2E1,1.1E1],"tree_param":{"num_deleted":"0","num_feature":"14","num_nodes":"29","size_leaf_vector":"1"}},{"base_weights":[1.0175808E-2,-1.1427325E-1,7.033272E-1,-1.9659674E-1,4.98262E-2,6.0468227E-1,1.0745621E-1,-2.3162201E-1,-1.4799896E-1,6.3913264E-3,1.2728882E-1,4.5600977E-2,6.574228E-2,-2.8668938E-2,-2.1423522E-2,-1.6791135E-1,-8.877545E-2,-2.3181858E-2,4.1017175E-2,1.0043699E-1,2.3138253E-2,-1.852419E-2,-1.3945675E-2,-9.693251E-3,4.1261436E-3,-4.277618E-3,1.9895532E-3,2.5172865E-3,7.166929E-3,7.6968544E-3,1.3498335E-2],"categories":[],"categories_nodes":[],"categories_segments":[],"categories_sizes":[],"default_left":[0,0,0,0,0,0,0,0,0,0,0,0,0,0,0,0,0,0,0,0,0,0,0,0,0,0,0,0,0,0,0],"id":26,"left_children":[1,3,5,7,9,11,-1,13,15,17,19,-1,-1,-1,-1,21,23,25,27,29,-1,-1,-1,-1,-1,-1,-1,-1,-1,-1,-1],"loss_changes":[2.7770483E1,3.6978185E0,1.1446323E0,2.7551174E-1,3.087277E-1,2.1692276E-2,0E0,3.8155556E-2,7.8256726E-2,6.2390648E-2,6.899917E-2,0E0,0E0,0E0,0E0,2.7685165E-3,2.7335376E-2,2.870544E-2,1.1794403E-2,1.2311518E-2,0E0,0E0,0E0,0E0,0E0,0E0,0E0,0E0,0E0,0E0,0E0],"parents":[2147483647,0,0,1,1,2,2,3,3,4,4,5,5,7,7,8,8,9,9,10,10,15,15,16,16,17,17,18,18,19,19],"right_children":[2,4,6,8,10,12,-1,14,16,18,20,-1,-1,-1,-1,22,24,26,28,30,-1,-1,-1,-1,-1,-1,-1,-1,-1,-1,-1],"split_conditions":[6.1E0,2.4E0,1.36E1,6E-1,4.1E0,1.1E1,1.0745621E-1,4.5E-2,1.5E0,3.4E0,4E1,4.5600977E-2,6.574228E-2,-2.8668938E-2,-2.1423522E-2,-8.7E1,-7.9E1,1E0,3.4E1,8.5E-1,2.3138253E-2,-1.852419E-2,-1.3945675E-2,-9.693251E-3,4.1261436E-3,-4.277618E-3,1.9895532E-3,2.5172865E-3,7.166929E-3,7.6968544E-3,1.3498335E-2],"split_indices":[2,2,2,2,2,2,0,2,2,2,1,0,0,0,0,0,0,8,1,3,0,0,0,0,0,0,0,0,0,0,0],"split_type":[0,0,0,0,0,0,0,0,0,0,0,0,0,0,0,0,0,0,0,0,0,0,0,0,0,0,0,0,0,0,0],"sum_hessian":[3.2E2,2.72E2,4.8E1,1.81E2,9.1E1,4E1,8E0,1.03E2,7.8E1,5.9E1,3.2E1,1.3E1,2.7E1,2.1E1,8.2E1,5.7E1,2.1E1,3.2E1,2.7E1,2.7E1,5E0,3.2E1,2.5E1,2E1,1E0,2.2E1,1E1,1.9E1,8E0,1.8E1,9E0],"tree_param":{"num_deleted":"0","num_feature":"14","num_nodes":"31","size_leaf_vector":"1"}},{"base_weights":[9.726455E-3,-1.0704116E-1,6.1583275E-1,-1.8725146E-1,2.0786969E-2,4.8108697E-1,8.436256E-2,-2.3149539E-2,-1.6561724E-1,-3.2378413E-2,7.77146E-2,2.1610757E-2,5.083067E-2,-1.7193875E-1,-1.1201131E-2,-5.893425E-2,1.8459606E-3,5.937924E-2,1.3235624E-2,-1.8225947E-2,-1.4624031E-2,-7.986739E-3,-3.1281074E-3,-1.0176295E-3,3.4214088E-3,3.806126E-3,9.237179E-3],"categories":[],"categories_nodes":[],"categories_segments":[],"categories_sizes":[],"default_left":[0,0,0,0,0,0,0,0,0,0,0,0,0,0,0,0,0,0,0,0,0,0,0,0,0,0,0],"id":27,"left_children":[1,3,5,7,9,11,-1,-1,13,15,17,-1,-1,19,-1,21,23,25,-1,-1,-1,-1,-1,-1,-1,-1,-1],"loss_changes":[2.2784239E1,2.7722383E0,1.190237E0,1.2055302E-1,3.2030708E-1,1.4259338E-1,0E0,0E0,1.9711256E-2,5.009592E-2,4.3236375E-2,0E0,0E0,1.3399124E-4,0E0,1.5446566E-2,1.0076621E-2,2.4617583E-2,0E0,0E0,0E0,0E0,0E0,0E0,0E0,0E0,0E0],"parents":[2147483647,0,0,1,1,2,2,3,3,4,4,5,5,8,8,9,9,10,10,13,13,15,15,16,16,17,17],"right_children":[2,4,6,8,10,12,-1,-1,14,16,18,-1,-1,20,-1,22,24,26,-1,-1,-1,-1,-1,-1,-1,-1,-1],"split_conditions":[5.8E0,1.7E0,1.26E1,1.45E-1,3.6E0,6.2E0,8.436256E-2,-2.3149539E-2,1.1E0,2.9E0,4.8E0,2.1610757E-2,5.083067E-2,-8E1,-1.1201131E-2,8.5E-1,8.5E-1,8.5E-1,1.3235624E-2,-1.8225947E-2,-1.4624031E-2,-7.986739E-3,-3.1281074E-3,-1.0176295E-3,3.4214088E-3,3.806126E-3,9.237179E-3],"split_indices":[2,2,2,2,2,2,0,0,2,2,2,0,0,0,0,3,3,3,0,0,0,0,0,0,0,0,0],"split_type":[0,0,0,0,0,0,0,0,0,0,0,0,0,0,0,0,0,0,0,0,0,0,0,0,0,0,0],"sum_hessian":[3.2E2,2.69E2,5.1E1,1.65E2,1.04E2,3.4E1,1.7E1,5.1E1,1.14E2,5.4E1,5E1,4E0,3E1,1E2,1.4E1,3E1,2.4E1,3.9E1,1.1E1,6.7E1,3.3E1,1.6E1,1.4E1,1.8E1,6E0,2.5E1,1.4E1],"tree_param":{"num_deleted":"0","num_feature":"14","num_nodes":"27","size_leaf_vector":"1"}},{"base_weights":[9.087641E-3,-9.775453E-2,5.511906E-1,-1.629535E-1,2.7384942E-2,4.7268826E-1,9.336803E-2,-1.9142377E-1,-1.2763521E-1,-1.8437315E-2,6.716083E-2,2.4303943E-2,5.0767547E-1,-2.3896953E-2,-1.757674E-2,-1.3709961E-1,-6.100123E-2,-1.0785262E-4,-5.3867087E-2,4.631746E-2,1.0489694E-1,3.0075863E-2,5.3618282E-2,-1.4332339E-2,-9.455571E-3,-7.395815E-3,4.0762424E-3,-1.4767568E-3,2.0198512E-3,-8.577065E-3,-2.3067978E-3,3.6374703E-3,9.671049E-3,6.9647157E-3,1.579137E-2],"categories":[],"categories_nodes":[],"categories_segments":[],"categories_sizes":[],"default_left":[0,0,0,0,0,0,0,0,0,0,0,0,0,0,0,0,0,0,0,0,0,0,0,0,0,0,0,0,0,0,0,0,0,0,0],"id":28,"left_children":[1,3,5,7,9,11,-1,13,15,17,19,-1,21,-1,-1,23,25,27,29,31,33,-1,-1,-1,-1,-1,-1,-1,-1,-1,-1,-1,-1,-1,-1],"loss_changes":[1.8646029E1,2.1992245E0,1.1500549E0,1.5354443E-1,1.70742E-1,2.4621582E-1,0E0,2.9458761E-2,4.335022E-2,2.8568171E-2,3.4468815E-2,0E0,6.8784714E-2,0E0,0E0,5.247593E-3,1.8837228E-2,9.228847E-3,1.276046E-2,1.3517737E-2,2.0771861E-2,0E0,0E0,0E0,0E0,0E0,0E0,0E0,0E0,0E0,0E0,0E0,0E0,0E0,0E0],"parents":[2147483647,0,0,1,1,2,2,3,3,4,4,5,5,7,7,8,8,9,9,10,10,12,12,15,15,16,16,17,17,18,18,19,19,20,20],"right_children":[2,4,6,8,10,12,-1,14,16,18,20,-1,22,-1,-1,24,26,28,30,32,34,-1,-1,-1,-1,-1,-1,-1,-1,-1,-1,-1,-1,-1,-1],"split_conditions":[5.7E0,2.2E0,1.37E1,5.1E-1,3.6E0,1.02E1,9.336803E-2,4E-2,7.5E-1,-8.1E1,1E0,2.4303943E-2,-7.8E1,-2.3896953E-2,-1.757674E-2,1E0,1E0,-9.2E1,-7.4E1,-5.2E1,4.5E0,3.0075863E-2,5.3618282E-2,-1.4332339E-2,-9.455571E-3,-7.395815E-3,4.0762424E-3,-1.4767568E-3,2.0198512E-3,-8.577065E-3,-2.3067978E-3,3.6374703E-3,9.671049E-3,6.9647157E-3,1.579137E-2],"split_indices":[2,2,2,2,2,2,0,2,3,0,8,0,0,0,0,10,7,0,0,0,2,0,0,0,0,0,0,0,0,0,0,0,0,0,0],"split_type":[0,0,0,0,0,0,0,0,0,0,0,0,0,0,0,0,0,0,0,0,0,0,0,0,0,0,0,0,0,0,0,0,0,0,0],"sum_hessian":[3.2E2,2.68E2,5.2E1,1.76E2,9.2E1,4.5E1,7E0,9.5E1,8.1E1,4.3E1,4.9E1,7E0,3.8E1,2E1,7.5E1,7E1,1.1E1,2.9E1,1.4E1,3.3E1,1.6E1,6E0,3.2E1,5.9E1,1.1E1,1E1,1E0,1.7E1,1.2E1,6E0,8E0,2.9E1,4E0,1.1E1,5E0],"tree_param":{"num_deleted":"0","num_feature":"14","num_nodes":"35","size_leaf_vector":"1"}},{"base_weights":[8.672674E-3,-8.813839E-2,4.9987084E-1,-1.4467254E-1,2.9786097E-2,4.2776707E-1,8.5198365E-2,-1.6704433E-1,-1.0282147E-1,-3.5580955E-3,6.988808E-2,1.8465202E-2,4.5291156E-1,-2.1621054E-2,-1.5467799E-2,-1.1375764E-1,-4.948497E-2,-1.7138671E-2,2.8367123E-2,4.9968436E-2,1.0331253E-1,3.6840703E-2,5.313691E-2,-9.952111E-3,-1.5529207E-2,-6.0062767E-3,3.8724304E-3,-3.8736053E-3,5.4108567E-4,5.0596794E-4,3.9514876E-3,3.931653E-3,8.897352E-3,6.4205597E-3,1.4475417E-2],"categories":[],"categories_nodes":[],"categories_segments":[],"categories_sizes":[],"default_left":[0,0,0,0,0,0,0,0,0,0,0,0,0,0,0,0,0,0,0,0,0,0,0,0,0,0,0,0,0,0,0,0,0,0,0],"id":29,"left_children":[1,3,5,7,9,11,-1,13,15,17,19,-1,21,-1,-1,23,25,27,29,31,33,-1,-1,-1,-1,-1,-1,-1,-1,-1,-1,-1,-1,-1,-1],"loss_changes":[1.5308705E1,1.797668E0,9.8114777E-1,1.5322757E-1,1.1791946E-1,1.9756699E-1,0E0,3.769374E-2,3.2868326E-2,2.1730755E-2,2.1469757E-2,0E0,7.607174E-2,0E0,0E0,1.6475677E-2,1.4455665E-2,1.7254971E-2,3.6974512E-3,7.7198E-3,1.3395146E-2,0E0,0E0,0E0,0E0,0E0,0E0,0E0,0E0,0E0,0E0,0E0,0E0,0E0,0E0],"parents":[2147483647,0,0,1,1,2,2,3,3,4,4,5,5,7,7,8,8,9,9,10,10,12,12,15,15,16,16,17,17,18,18,19,19,20,20],"right_children":[2,4,6,8,10,12,-1,14,16,18,20,-1,22,-1,-1,24,26,28,30,32,34,-1,-1,-1,-1,-1,-1,-1,-1,-1,-1,-1,-1,-1,-1],"split_conditions":[5.7E0,2.4E0,1.37E1,6.2E-1,3.9E0,6.2E0,8.5198365E-2,4E-2,8.5E-1,1E0,1E0,1.8465202E-2,3E1,-2.1621054E-2,-1.5467799E-2,1E0,1E0,3.2E0,-9.4E1,-5.2E1,4.5E0,3.6840703E-2,5.313691E-2,-9.952111E-3,-1.5529207E-2,-6.0062767E-3,3.8724304E-3,-3.8736053E-3,5.4108567E-4,5.0596794E-4,3.9514876E-3,3.931653E-3,8.897352E-3,6.4205597E-3,1.4475417E-2],"split_indices":[2,2,2,2,2,2,0,2,3,8,8,0,1,0,0,13,7,2,0,0,2,0,0,0,0,0,0,0,0,0,0,0,0,0,0],"split_type":[0,0,0,0,0,0,0,0,0,0,0,0,0,0,0,0,0,0,0,0,0,0,0,0,0,0,0,0,0,0,0,0,0,0,0],"sum_hessian":[3.2E2,2.68E2,5.2E1,1.81E2,8.7E1,4.5E1,7E0,1.16E2,6.5E1,4.8E1,3.9E1,5E0,4E1,2E1,9.6E1,5.3E1,1.2E1,3.4E1,1.4E1,2.6E1,1.3E1,2.2E1,1.8E1,4.2E1,1.1E1,1.1E1,1E0,1.7E1,1.7E1,5E0,9E0,2.2E1,4E0,8E0,5E0],"tree_param":{"num_deleted":"0","num_feature":"14","num_nodes":"35","size_leaf_vector":"1"}},{"base_weights":[8.3156815E-3,-7.943552E-2,4.5353752E-1,-1.3277178E-1,2.2929573E-2,3.9162776E-1,8.044262E-2,-1.6096553E-1,-1.08401656E-1,-1.5099731E-2,5.593677E-2,2.765957E-1,4.4759274E-1,-1.9856842E-2,-1.4684585E-2,-1.1918865E-1,-6.804456E-2,1.0350465E-3,-4.636264E-2,3.837516E-2,8.776959E-2,1.6926449E-2,3.0485664E-2,3.3195987E-2,4.970665E-2,-1.3013236E-2,-1.000744E-2,-7.4481866E-3,3.6788105E-3,-1.2940109E-3,1.5872875E-3,-7.912234E-3,-2.2070552E-3,2.9849235E-3,8.185568E-3,5.7994565E-3,1.32691385E-2],"categories":[],"categories_nodes":[],"categories_segments":[],"categories_sizes":[],"default_left":[0,0,0,0,0,0,0,0,0,0,0,0,0,0,0,0,0,0,0,0,0,0,0,0,0,0,0,0,0,0,0,0,0,0,0,0,0],"id":30,"left_children":[1,3,5,7,9,11,-1,13,15,17,19,21,23,-1,-1,25,27,29,31,33,35,-1,-1,-1,-1,-1,-1,-1,-1,-1,-1,-1,-1,-1,-1,-1,-1],"loss_changes":[1.2577096E1,1.4717227E0,8.363056E-1,1.04165316E-1,1.1758202E-1,1.7877245E-1,0E0,1.3316393E-2,3.4552336E-2,2.2242468E-2,2.4583608E-2,2.9975176E-3,6.617546E-3,0E0,0E0,2.8749704E-3,1.8261373E-2,6.426226E-3,1.0190751E-2,1.0160871E-2,1.5042931E-2,0E0,0E0,0E0,0E0,0E0,0E0,0E0,0E0,0E0,0E0,0E0,0E0,0E0,0E0,0E0,0E0],"parents":[2147483647,0,0,1,1,2,2,3,3,4,4,5,5,7,7,8,8,9,9,10,10,11,11,12,12,15,15,16,16,17,17,18,18,19,19,20,20],"right_children":[2,4,6,8,10,12,-1,14,16,18,20,22,24,-1,-1,26,28,30,32,34,36,-1,-1,-1,-1,-1,-1,-1,-1,-1,-1,-1,-1,-1,-1,-1,-1],"split_conditions":[5.7E0,2.2E0,1.38E1,4.6E-1,3.6E0,1.1E1,8.044262E-2,2.5E-2,1.2E0,-8.1E1,1E0,6.2E0,3E1,-1.9856842E-2,-1.4684585E-2,-8.7E1,1E0,8E-1,-7.5E1,-5.2E1,4.5E0,1.6926449E-2,3.0485664E-2,3.3195987E-2,4.970665E-2,-1.3013236E-2,-1.000744E-2,-7.4481866E-3,3.6788105E-3,-1.2940109E-3,1.5872875E-3,-7.912234E-3,-2.2070552E-3,2.9849235E-3,8.185568E-3,5.7994565E-3,1.32691385E-2],"split_indices":[2,2,2,2,2,2,0,2,2,0,8,2,1,0,0,0,7,3,0,0,2,0,0,0,0,0,0,0,0,0,0,0,0,0,0,0,0],"split_type":[0,0,0,0,0,0,0,0,0,0,0,0,0,0,0,0,0,0,0,0,0,0,0,0,0,0,0,0,0,0,0,0,0,0,0,0,0],"sum_hessian":[3.2E2,2.68E2,5.2E1,1.76E2,9.2E1,4.6E1,6E0,7.9E1,9.7E1,4.3E1,4.9E1,1.7E1,2.9E1,1.8E1,6.1E1,7.5E1,2.2E1,2.9E1,1.4E1,3.3E1,1.6E1,5E0,1.2E1,1.1E1,1.8E1,4.4E1,3.1E1,2.1E1,1E0,1.5E1,1.4E1,5E0,9E0,2.9E1,4E0,1.1E1,5E0],"tree_param":{"num_deleted":"0","num_feature":"14","num_nodes":"37","size_leaf_vector":"1"}},{"base_weights":[8.013185E-3,-7.164409E-2,4.1216025E-1,-1.1794513E-1,2.492901E-2,3.5124725E-1,7.108899E-2,-1.3624167E-1,-8.372329E-2,-2.9550085E-3,5.8463704E-2,1.8078525E-2,3.7720746E-1,-1.7414022E-2,-1.2511606E-2,-7.199098E-2,-1.3051944E-2,-2.5873674E-2,1.1187238E-2,9.660857E-3,6.679183E-2,2.1219691E-2,4.007792E-2,-8.00264E-3,-3.9874534E-3,-4.701574E-3,-2.1442413E-4,-4.9372314E-4,2.6612505E-3,-3.207207E-5,2.3076534E-3,8.598955E-3,3.9820047E-3],"categories":[],"categories_nodes":[],"categories_segments":[],"categories_sizes":[],"default_left":[0,0,0,0,0,0,0,0,0,0,0,0,0,0,0,0,0,0,0,0,0,0,0,0,0,0,0,0,0,0,0,0,0],"id":31,"left_children":[1,3,5,7,9,11,-1,13,15,17,19,-1,21,-1,-1,23,-1,25,27,29,31,-1,-1,-1,-1,-1,-1,-1,-1,-1,-1,-1,-1],"loss_changes":[1.0363563E1,1.205756E0,7.147169E-1,1.0255122E-1,8.2459986E-2,1.353674E-1,0E0,2.7544737E-2,2.6839525E-2,1.6171403E-2,1.5612185E-2,0E0,6.6649914E-2,0E0,0E0,1.1002809E-2,0E0,9.431281E-3,7.841844E-3,9.447684E-4,1.4180988E-2,0E0,0E0,0E0,0E0,0E0,0E0,0E0,0E0,0E0,0E0,0E0,0E0],"parents":[2147483647,0,0,1,1,2,2,3,3,4,4,5,5,7,7,8,8,9,9,10,10,12,12,15,15,17,17,18,18,19,19,20,20],"right_children":[2,4,6,8,10,12,-1,14,16,18,20,-1,22,-1,-1,24,-1,26,28,30,32,-1,-1,-1,-1,-1,-1,-1,-1,-1,-1,-1,-1],"split_conditions":[5.7E0,2.4E0,1.37E1,6.2E-1,3.9E0,1.02E1,7.108899E-2,5.5E-2,1E0,3.2E1,-8.8E1,1.8078525E-2,-7.8E1,-1.7414022E-2,-1.2511606E-2,8.5E-1,-1.3051944E-2,3.2E0,-9.1E1,4.1E0,-7.4E1,2.1219691E-2,4.007792E-2,-8.00264E-3,-3.9874534E-3,-4.701574E-3,-2.1442413E-4,-4.9372314E-4,2.6612505E-3,-3.207207E-5,2.3076534E-3,8.598955E-3,3.9820047E-3],"split_indices":[2,2,2,2,2,2,0,2,13,1,0,0,0,0,0,3,0,2,0,2,0,0,0,0,0,0,0,0,0,0,0,0,0],"split_type":[0,0,0,0,0,0,0,0,0,0,0,0,0,0,0,0,0,0,0,0,0,0,0,0,0,0,0,0,0,0,0,0,0],"sum_hessian":[3.2E2,2.68E2,5.2E1,1.81E2,8.7E1,4.5E1,7E0,1.16E2,6.5E1,4.8E1,3.9E1,7E0,3.8E1,2.3E1,9.3E1,5.4E1,1.1E1,1.8E1,3E1,6E0,3.3E1,6E0,3.2E1,4.2E1,1.2E1,9E0,9E0,1.5E1,1.5E1,4E0,2E0,1.8E1,1.5E1],"tree_param":{"num_deleted":"0","num_feature":"14","num_nodes":"33","size_leaf_vector":"1"}},{"base_weights":[7.5470926E-3,-6.4638995E-2,3.737831E-1,-1.1230641E-1,1.2067073E-2,3.2103637E-1,6.7454234E-2,-1.4281784E-2,-9.905553E-2,-2.379866E-2,4.3234106E-2,2.2751239E-1,3.6644953E-1,-1.02864094E-1,-6.5791875E-2,-3.9489444E-2,-5.8087013E-3,2.174581E-2,6.2490594E-2,2.6633865E-1,1.5909297E-2,2.647915E-2,4.1136783E-2,-1.1016893E-2,-8.43696E-3,-2.7860762E-3,-6.94843E-3,-5.3366185E-3,-2.1507612E-3,-2.7542044E-3,9.0674404E-4,1.1732507E-3,4.158139E-3,8.242931E-3,3.8385836E-3,1.8275794E-2,3.4602024E-2],"categories":[],"categories_nodes":[],"categories_segments":[],"categories_sizes":[],"default_left":[0,0,0,0,0,0,0,0,0,0,0,0,0,0,0,0,0,0,0,0,0,0,0,0,0,0,0,0,0,0,0,0,0,0,0,0,0],"id":32,"left_children":[1,3,5,7,9,11,-1,-1,13,15,17,19,21,23,25,27,29,31,33,35,-1,-1,-1,-1,-1,-1,-1,-1,-1,-1,-1,-1,-1,-1,-1,-1,-1],"loss_changes":[8.510484E0,9.849216E-1,6.2424326E-1,5.296731E-2,1.1728307E-1,1.1624813E-1,0E0,0E0,8.308053E-3,1.3602171E-2,2.1813288E-2,5.443871E-3,2.8062344E-2,4.890442E-3,1.6497076E-4,5.33998E-3,8.009134E-3,5.0735E-3,1.0773815E-2,3.3605099E-3,0E0,0E0,0E0,0E0,0E0,0E0,0E0,0E0,0E0,0E0,0E0,0E0,0E0,0E0,0E0,0E0,0E0],"parents":[2147483647,0,0,1,1,2,2,3,3,4,4,5,5,8,8,9,9,10,10,11,11,12,12,13,13,14,14,15,15,16,16,17,17,18,18,19,19],"right_children":[2,4,6,8,10,12,-1,-1,14,16,18,20,22,24,26,28,30,32,34,36,-1,-1,-1,-1,-1,-1,-1,-1,-1,-1,-1,-1,-1,-1,-1,-1,-1],"split_conditions":[5.7E0,1.7E0,1.38E1,1.1E-1,3.4E0,1.1E1,6.7454234E-2,-1.4281784E-2,1.1E0,2.7E0,4.1E0,-7E1,3E1,-8E1,-1.09E2,8.5E-1,3.5E1,3.4E1,-7.4E1,-7.3E1,1.5909297E-2,2.647915E-2,4.1136783E-2,-1.1016893E-2,-8.43696E-3,-2.7860762E-3,-6.94843E-3,-5.3366185E-3,-2.1507612E-3,-2.7542044E-3,9.0674404E-4,1.1732507E-3,4.158139E-3,8.242931E-3,3.8385836E-3,1.8275794E-2,3.4602024E-2],"split_indices":[2,2,2,2,2,2,0,0,2,2,2,0,1,0,0,3,1,1,0,0,0,0,0,0,0,0,0,0,0,0,0,0,0,0,0,0,0],"split_type":[0,0,0,0,0,0,0,0,0,0,0,0,0,0,0,0,0,0,0,0,0,0,0,0,0,0,0,0,0,0,0,0,0,0,0,0,0],"sum_hessian":[3.2E2,2.68E2,5.2E1,1.65E2,1.03E2,4.6E1,6E0,4.7E1,1.18E2,4.8E1,5.5E1,1.7E1,2.9E1,1.04E2,1.4E1,2.5E1,2.3E1,2.7E1,2.8E1,9E0,8E0,1.1E1,1.8E1,7.1E1,3.3E1,2E0,1.2E1,1.3E1,1.2E1,9E0,1.4E1,1.9E1,8E0,1.4E1,1.4E1,6E0,3E0],"tree_param":{"num_deleted":"0","num_feature":"14","num_nodes":"37","size_leaf_vector":"1"}},{"base_weights":[7.317212E-3,-5.7566058E-2,3.4407037E-1,-9.611902E-2,2.1919386E-2,2.950998E-1,6.167243E-2,-1.1539165E-1,-7.374784E-2,2.7681151E-3,5.9491284E-2,2.3000881E-1,3.4518283E-2,-1.5118362E-2,-1.05775865E-2,-8.448096E-2,-4.8114456E-2,1.305207E-2,-2.1952894E-2,4.043624E-2,8.470416E-2,2.5862446E-1,1.2765524E-1,-9.651846E-3,-6.2403115E-3,-5.3479574E-3,1.4421385E-3,8.782566E-4,5.2484097E-3,-4.222033E-3,-1.5169143E-4,4.842345E-3,-5.1666736E-3,1.3541269E-2,6.1021186E-3,1.6709259E-2,2.933607E-2,2.7456284E-3,1.3977902E-2],"categories":[],"categories_nodes":[],"categories_segments":[],"categories_sizes":[],"default_left":[0,0,0,0,0,0,0,0,0,0,0,0,0,0,0,0,0,0,0,0,0,0,0,0,0,0,0,0,0,0,0,0,0,0,0,0,0,0,0],"id":33,"left_children":[1,3,5,7,9,11,-1,13,15,17,19,21,-1,-1,-1,23,25,27,29,31,33,35,37,-1,-1,-1,-1,-1,-1,-1,-1,-1,-1,-1,-1,-1,-1,-1,-1],"loss_changes":[7.0335436E0,8.294946E-1,5.1231E-1,6.995952E-2,6.387524E-2,7.056284E-2,0E0,1.7048717E-2,1.9871235E-2,1.5540315E-2,1.09878555E-2,3.4350395E-2,0E0,0E0,0E0,9.922653E-3,1.0165587E-2,6.778329E-3,7.3912833E-3,1.6479144E-2,6.1481E-3,5.0325394E-3,4.6657175E-3,0E0,0E0,0E0,0E0,0E0,0E0,0E0,0E0,0E0,0E0,0E0,0E0,0E0,0E0,0E0,0E0],"parents":[2147483647,0,0,1,1,2,2,3,3,4,4,5,5,7,7,8,8,9,9,10,10,11,11,15,15,16,16,17,17,18,18,19,19,20,20,21,21,22,22],"right_children":[2,4,6,8,10,12,-1,14,16,18,20,22,-1,-1,-1,24,26,28,30,32,34,36,38,-1,-1,-1,-1,-1,-1,-1,-1,-1,-1,-1,-1,-1,-1,-1,-1],"split_conditions":[5.8E0,2.4E0,1.38E1,5.1E-1,4.1E0,1.13E1,6.167243E-2,2E-2,1.2E0,-8.1E1,4.8E0,-6.6E1,3.4518283E-2,-1.5118362E-2,-1.05775865E-2,-8.7E1,-7.9E1,-8.2E1,-7.2E1,-5.8E1,-7.4E1,7.5E-1,-6.5E1,-9.651846E-3,-6.2403115E-3,-5.3479574E-3,1.4421385E-3,8.782566E-4,5.2484097E-3,-4.222033E-3,-1.5169143E-4,4.842345E-3,-5.1666736E-3,1.3541269E-2,6.1021186E-3,1.6709259E-2,2.933607E-2,2.7456284E-3,1.3977902E-2],"split_indices":[2,2,2,2,2,2,0,2,2,0,2,0,0,0,0,0,0,0,0,0,0,3,0,0,0,0,0,0,0,0,0,0,0,0,0,0,0,0,0],"split_type":[0,0,0,0,0,0,0,0,0,0,0,0,0,0,0,0,0,0,0,0,0,0,0,0,0,0,0,0,0,0,0,0,0,0,0,0,0,0,0],"sum_hessian":[3.2E2,2.69E2,5.1E1,1.81E2,8.8E1,4.5E1,6E0,9.5E1,8.6E1,5.9E1,2.9E1,2.2E1,2.3E1,1.7E1,7.8E1,5.9E1,2.7E1,4.2E1,1.7E1,1.8E1,1.1E1,1.6E1,6E0,3.6E1,2.3E1,2.5E1,2E0,3.9E1,3E0,8E0,9E0,1.7E1,1E0,2E0,9E0,6E0,1E1,1E0,5E0],"tree_param":{"num_deleted":"0","num_feature":"14","num_nodes":"39","size_leaf_vector":"1"}},{"base_weights":[7.0046084E-3,-5.2596763E-2,3.0937752E-1,-8.592587E-2,2.056185E-2,2.6787105E-1,5.8986615E-2,-1.00667894E-1,-6.0837723E-2,4.5214747E-3,5.138045E-2,1.703646E-1,2.9564086E-1,-1.3690516E-2,-9.298484E-3,-5.1583122E-2,-1.020409E-1,-1.4944899E-2,1.4647949E-2,6.9056444E-2,3.0279096E-2,1.7766317E-2,4.1390895E-3,2.21804E-2,3.4362014E-2,-5.7926136E-3,-2.660422E-3,-1.1251169E-2,-5.2971393E-3,-3.2469407E-3,-5.5611134E-5,-2.5933812E-4,2.3717175E-3,5.05147E-3,1.2638521E-2,1.2121851E-3,6.4169215E-3],"categories":[],"categories_nodes":[],"categories_segments":[],"categories_sizes":[],"default_left":[0,0,0,0,0,0,0,0,0,0,0,0,0,0,0,0,0,0,0,0,0,0,0,0,0,0,0,0,0,0,0,0,0,0,0,0,0],"id":34,"left_children":[1,3,5,7,9,11,-1,13,15,17,19,21,23,-1,-1,25,27,29,31,33,35,-1,-1,-1,-1,-1,-1,-1,-1,-1,-1,-1,-1,-1,-1,-1,-1],"loss_changes":[5.8012824E0,6.5767246E-1,4.5902252E-1,6.229782E-2,4.1786753E-2,7.960439E-2,0E0,1.9287467E-2,2.1810055E-2,1.1455078E-2,8.7256655E-3,4.8835874E-3,5.1318645E-2,0E0,0E0,7.965401E-3,2.0566583E-4,5.025072E-3,6.0033975E-3,9.560324E-3,8.452418E-3,0E0,0E0,0E0,0E0,0E0,0E0,0E0,0E0,0E0,0E0,0E0,0E0,0E0,0E0,0E0,0E0],"parents":[2147483647,0,0,1,1,2,2,3,3,4,4,5,5,7,7,8,8,9,9,10,10,11,11,12,12,15,15,16,16,17,17,18,18,19,19,20,20],"right_children":[2,4,6,8,10,12,-1,14,16,18,20,22,24,-1,-1,26,28,30,32,34,36,-1,-1,-1,-1,-1,-1,-1,-1,-1,-1,-1,-1,-1,-1,-1,-1],"split_conditions":[5.7E0,2.5E0,4.7E1,6.1E-1,4.1E0,1.08E1,5.8986615E-2,2E-2,1E0,3E1,-7.4E1,1.07E1,3E1,-1.3690516E-2,-9.298484E-3,8.5E-1,1.2E0,3.2E0,-9.1E1,4.8E0,-5.2E1,1.7766317E-2,4.1390895E-3,2.21804E-2,3.4362014E-2,-5.7926136E-3,-2.660422E-3,-1.1251169E-2,-5.2971393E-3,-3.2469407E-3,-5.5611134E-5,-2.5933812E-4,2.3717175E-3,5.05147E-3,1.2638521E-2,1.2121851E-3,6.4169215E-3],"split_indices":[2,2,1,2,2,2,0,2,13,1,0,2,1,0,0,3,2,2,0,2,0,0,0,0,0,0,0,0,0,0,0,0,0,0,0,0,0],"split_type":[0,0,0,0,0,0,0,0,0,0,0,0,0,0,0,0,0,0,0,0,0,0,0,0,0,0,0,0,0,0,0,0,0,0,0,0,0],"sum_hessian":[3.2E2,2.68E2,5.2E1,1.84E2,8.4E1,4.7E1,5E0,1.14E2,7E1,5.6E1,2.8E1,1.2E1,3.5E1,1.7E1,9.7E1,5.9E1,1.1E1,1.9E1,3.7E1,1.4E1,1.4E1,1.1E1,1E0,1.6E1,1.9E1,4.6E1,1.3E1,8E0,3E0,8E0,1.1E1,1.3E1,2.4E1,1.2E1,2E0,1E1,4E0],"tree_param":{"num_deleted":"0","num_feature":"14","num_nodes":"37","size_leaf_vector":"1"}},{"base_weights":[6.6579664E-3,-4.5029607E-2,2.9449573E-1,-7.759268E-2,2.3163626E-2,2.5422788E-1,5.4071065E-2,-8.5477054E-2,-4.0062755E-2,1.13867475E-2,8.0503784E-2,2.0144409E-1,2.978551E-1,-1.1571482E-2,-7.801998E-2,-4.356248E-2,-1.1051846E-2,-8.470027E-3,2.4089279E-2,5.4661155E-2,9.628343E-3,1.0085153E-2,2.114904E-2,3.158766E-2,1.3778925E-2,-8.337638E-3,-6.123148E-3,-3.59226E-3,-6.8134903E-3,-3.3128322E-3,3.862703E-3,-1.9592128E-3,1.5733385E-3,2.6833022E-3,-4.9689533E-3,8.87487E-3,1.6458894E-3],"categories":[],"categories_nodes":[],"categories_segments":[],"categories_sizes":[],"default_left":[0,0,0,0,0,0,0,0,0,0,0,0,0,0,0,0,0,0,0,0,0,0,0,0,0,0,0,0,0,0,0,0,0,0,0,0,0],"id":35,"left_children":[1,3,5,7,9,11,-1,13,15,17,19,21,23,-1,25,27,29,31,33,35,-1,-1,-1,-1,-1,-1,-1,-1,-1,-1,-1,-1,-1,-1,-1,-1,-1],"loss_changes":[4.788982E0,6.0801595E-1,3.483491E-1,5.1317096E-2,5.9183966E-2,4.132247E-2,0E0,2.5245667E-2,2.97058E-3,1.9121384E-2,8.5385144E-4,1.914382E-3,1.9937396E-2,0E0,6.1354637E-3,3.1843297E-3,6.7633204E-3,8.384033E-3,1.0645097E-2,8.957064E-3,0E0,0E0,0E0,0E0,0E0,0E0,0E0,0E0,0E0,0E0,0E0,0E0,0E0,0E0,0E0,0E0,0E0],"parents":[2147483647,0,0,1,1,2,2,3,3,4,4,5,5,7,7,8,8,9,9,10,10,11,11,12,12,14,14,15,15,16,16,17,17,18,18,19,19],"right_children":[2,4,6,8,10,12,-1,14,16,18,20,22,24,-1,26,28,30,32,34,36,-1,-1,-1,-1,-1,-1,-1,-1,-1,-1,-1,-1,-1,-1,-1,-1,-1],"split_conditions":[6.1E0,2.5E0,4.7E1,1.1E0,4.8E0,3E1,5.4071065E-2,8E-2,-7.9E1,3.4E0,3.8E1,-8.2E1,8E-1,-1.1571482E-2,-7.7E1,-9.8E1,8.5E-1,1E0,-5.8E1,-5.4E1,9.628343E-3,1.0085153E-2,2.114904E-2,3.158766E-2,1.3778925E-2,-8.337638E-3,-6.123148E-3,-3.59226E-3,-6.8134903E-3,-3.3128322E-3,3.862703E-3,-1.9592128E-3,1.5733385E-3,2.6833022E-3,-4.9689533E-3,8.87487E-3,1.6458894E-3],"split_indices":[2,2,1,2,2,1,0,2,0,2,1,0,3,0,0,0,3,8,0,0,0,0,0,0,0,0,0,0,0,0,0,0,0,0,0,0,0],"split_type":[0,0,0,0,0,0,0,0,0,0,0,0,0,0,0,0,0,0,0,0,0,0,0,0,0,0,0,0,0,0,0,0,0,0,0,0,0],"sum_hessian":[3.2E2,2.72E2,4.8E1,1.84E2,8.8E1,4.3E1,5E0,1.51E2,3.3E1,7.4E1,1.4E1,2.2E1,2.1E1,2.7E1,1.24E2,2.9E1,4E0,2.9E1,4.5E1,7E0,7E0,3E0,1.9E1,1.8E1,3E0,9.1E1,3.3E1,2.4E1,5E0,3E0,1E0,2E1,9E0,4.4E1,1E0,3E0,4E0],"tree_param":{"num_deleted":"0","num_feature":"14","num_nodes":"37","size_leaf_vector":"1"}},{"base_weights":[6.341928E-3,-4.0594067E-2,2.6771304E-1,-7.002741E-2,2.1043709E-2,2.305462E-1,4.956511E-2,-8.523421E-2,-5.3028736E-2,1.0212536E-2,7.379665E-2,1.8265799E-1,2.701318E-1,-1.1304662E-2,-7.7818297E-3,-5.813622E-2,-2.1149805E-2,-7.635808E-3,2.163075E-2,1.1179177E-2,5.9351884E-2,9.32877E-3,1.9139914E-2,2.8185863E-2,1.0190885E-2,-5.1867627E-3,-8.5007185E-3,-3.8946734E-3,9.0705557E-4,-1.7726104E-3,1.4317393E-3,2.420943E-3,-4.7204974E-3,1.4600945E-3,7.761887E-3],"categories":[],"categories_nodes":[],"categories_segments":[],"categories_sizes":[],"default_left":[0,0,0,0,0,0,0,0,0,0,0,0,0,0,0,0,0,0,0,0,0,0,0,0,0,0,0,0,0,0,0,0,0,0,0],"id":36,"left_children":[1,3,5,7,9,11,-1,13,15,17,19,21,23,-1,-1,25,27,29,31,-1,33,-1,-1,-1,-1,-1,-1,-1,-1,-1,-1,-1,-1,-1,-1],"loss_changes":[3.948804E0,4.9675176E-1,3.0084467E-1,4.330182E-2,5.0098836E-2,3.4068108E-2,0E0,1.1003315E-2,1.3424337E-2,1.5449883E-2,1.5974045E-3,1.12354755E-4,1.4676094E-2,0E0,0E0,8.561015E-3,7.882884E-3,6.89922E-3,9.308053E-3,0E0,9.493731E-3,0E0,0E0,0E0,0E0,0E0,0E0,0E0,0E0,0E0,0E0,0E0,0E0,0E0,0E0],"parents":[2147483647,0,0,1,1,2,2,3,3,4,4,5,5,7,7,8,8,9,9,10,10,11,11,12,12,15,15,16,16,17,17,18,18,20,20],"right_children":[2,4,6,8,10,12,-1,14,16,18,20,22,24,-1,-1,26,28,30,32,-1,34,-1,-1,-1,-1,-1,-1,-1,-1,-1,-1,-1,-1,-1,-1],"split_conditions":[6.1E0,2.5E0,4.7E1,5.1E-1,4.8E0,3E1,4.956511E-2,2E-2,8.5E-1,3.4E0,-7.4E1,-8.2E1,-4.4E1,-1.1304662E-2,-7.7818297E-3,1E0,-1.01E2,1E0,-5.8E1,1.1179177E-2,-5.2E1,9.32877E-3,1.9139914E-2,2.8185863E-2,1.0190885E-2,-5.1867627E-3,-8.5007185E-3,-3.8946734E-3,9.0705557E-4,-1.7726104E-3,1.4317393E-3,2.420943E-3,-4.7204974E-3,1.4600945E-3,7.761887E-3],"split_indices":[2,2,1,2,2,1,0,2,3,2,0,0,0,0,0,13,0,8,0,0,0,0,0,0,0,0,0,0,0,0,0,0,0,0,0],"split_type":[0,0,0,0,0,0,0,0,0,0,0,0,0,0,0,0,0,0,0,0,0,0,0,0,0,0,0,0,0,0,0,0,0,0,0],"sum_hessian":[3.2E2,2.72E2,4.8E1,1.84E2,8.8E1,4.3E1,5E0,9.5E1,8.9E1,7.4E1,1.4E1,2.2E1,2.1E1,1.7E1,7.8E1,7.6E1,1.3E1,2.9E1,4.5E1,2E0,1.2E1,3E0,1.9E1,1.9E1,2E0,6.4E1,1.2E1,8E0,5E0,2E1,9E0,4.4E1,1E0,4E0,8E0],"tree_param":{"num_deleted":"0","num_feature":"14","num_nodes":"35","size_leaf_vector":"1"}},{"base_weights":[6.0142903E-3,-3.6600593E-2,2.4331732E-1,-6.191053E-2,2.2083728E-2,2.0901066E-1,4.5434665E-2,-6.979775E-2,-3.0391341E-2,1.183034E-2,6.777706E-2,1.6852181E-2,2.4917118E-1,-8.735755E-2,-6.1105665E-2,-3.657884E-2,-1.8823914E-2,2.609598E-3,3.0158365E-2,1.0433912E-2,5.4126043E-2,2.610044E-2,9.511487E-3,-7.6167653E-3,-1.0328221E-2,-6.539084E-3,-4.876717E-3,-2.6129566E-3,-4.96398E-3,-3.5484885E-3,2.2726656E-4,-5.914918E-4,1.5483354E-3,1.9646897E-3,5.6666373E-3,1.3432885E-3,7.0719346E-3],"categories":[],"categories_nodes":[],"categories_segments":[],"categories_sizes":[],"default_left":[0,0,0,0,0,0,0,0,0,0,0,0,0,0,0,0,0,0,0,0,0,0,0,0,0,0,0,0,0,0,0,0,0,0,0,0,0],"id":37,"left_children":[1,3,5,7,9,11,-1,13,15,17,19,-1,21,23,25,27,29,31,33,-1,35,-1,-1,-1,-1,-1,-1,-1,-1,-1,-1,-1,-1,-1,-1,-1,-1],"loss_changes":[3.255063E0,4.0685314E-1,2.597828E-1,4.53611E-2,3.8084626E-2,2.9555678E-2,0E0,1.7861962E-2,2.1743812E-3,1.1582159E-2,1.8391758E-3,0E0,1.1634111E-2,6.865859E-4,2.3626983E-3,2.1148697E-3,5.704477E-3,5.2494826E-3,5.2953567E-3,0E0,7.828079E-3,0E0,0E0,0E0,0E0,0E0,0E0,0E0,0E0,0E0,0E0,0E0,0E0,0E0,0E0,0E0,0E0],"parents":[2147483647,0,0,1,1,2,2,3,3,4,4,5,5,7,7,8,8,9,9,10,10,12,12,13,13,14,14,15,15,16,16,17,17,18,18,20,20],"right_children":[2,4,6,8,10,12,-1,14,16,18,20,-1,22,24,26,28,30,32,34,-1,36,-1,-1,-1,-1,-1,-1,-1,-1,-1,-1,-1,-1,-1,-1,-1,-1],"split_conditions":[6.1E0,2.7E0,4.7E1,1.1E0,4.8E0,3.1E1,4.5434665E-2,1.1E-1,8.5E-1,8.5E-1,-7.4E1,1.6852181E-2,-4.4E1,4.6E1,-6.3E1,-9.6E1,-1.01E2,3.9E0,-7.9E1,1.0433912E-2,-5.2E1,2.610044E-2,9.511487E-3,-7.6167653E-3,-1.0328221E-2,-6.539084E-3,-4.876717E-3,-2.6129566E-3,-4.96398E-3,-3.5484885E-3,2.2726656E-4,-5.914918E-4,1.5483354E-3,1.9646897E-3,5.6666373E-3,1.3432885E-3,7.0719346E-3],"split_indices":[2,2,1,2,2,1,0,2,3,3,0,0,0,1,0,0,0,2,0,0,0,0,0,0,0,0,0,0,0,0,0,0,0,0,0,0,0],"split_type":[0,0,0,0,0,0,0,0,0,0,0,0,0,0,0,0,0,0,0,0,0,0,0,0,0,0,0,0,0,0,0,0,0,0,0,0,0],"sum_hessian":[3.2E2,2.72E2,4.8E1,1.9E2,8.2E1,4.3E1,5E0,1.51E2,3.9E1,6.8E1,1.4E1,2.4E1,1.9E1,4.7E1,1.04E2,2.4E1,1.5E1,4.6E1,2.2E1,2E0,1.2E1,1.7E1,2E0,3.1E1,1.6E1,7.4E1,3E1,1.5E1,9E0,8E0,7E0,2.8E1,1.8E1,1.7E1,5E0,4E0,8E0],"tree_param":{"num_deleted":"0","num_feature":"14","num_nodes":"37","size_leaf_vector":"1"}},{"base_weights":[5.6779007E-3,-3.4840852E-2,2.1122254E-1,-6.098949E-2,7.2314097E-3,1.8358512E-1,4.3982487E-2,-7.873624E-2,-5.310322E-2,-1.3053734E-2,2.4851779E-2,1.15962505E-1,2.0238265E-1,-6.8713026E-3,-9.356153E-3,-4.952285E-2,-6.5062875E-3,-2.04554E-2,-2.9029345E-4,1.4659582E-2,4.5554213E-2,1.2383426E-2,1.0750771E-3,1.544211E-1,2.396925E-2,-5.6426865E-3,-2.9030396E-3,-4.4545373E-3,-1.4109429E-3,-1.4947981E-3,9.5056894E-4,1.0240835E-3,4.2658905E-3,2.6958797E-3,7.825192E-3,7.3651792E-3,1.6496211E-2],"categories":[],"categories_nodes":[],"categories_segments":[],"categories_sizes":[],"default_left":[0,0,0,0,0,0,0,0,0,0,0,0,0,0,0,0,0,0,0,0,0,0,0,0,0,0,0,0,0,0,0,0,0,0,0,0,0],"id":38,"left_children":[1,3,5,7,9,11,-1,13,15,17,19,21,23,-1,-1,25,-1,27,29,31,33,-1,-1,35,-1,-1,-1,-1,-1,-1,-1,-1,-1,-1,-1,-1,-1],"loss_changes":[2.6807797E0,2.9637665E-1,2.541077E-1,1.9051492E-2,3.7497304E-2,3.881693E-2,0E0,8.523762E-4,1.8306971E-3,4.6231262E-3,1.11483745E-2,9.435296E-3,2.9195547E-2,0E0,0E0,1.1802509E-2,0E0,4.1105915E-3,2.8702335E-3,4.3882923E-3,8.834917E-3,0E0,0E0,4.026681E-3,0E0,0E0,0E0,0E0,0E0,0E0,0E0,0E0,0E0,0E0,0E0,0E0,0E0],"parents":[2147483647,0,0,1,1,2,2,3,3,4,4,5,5,7,7,8,8,9,9,10,10,11,11,12,12,15,15,17,17,18,18,19,19,20,20,23,23],"right_children":[2,4,6,8,10,12,-1,14,16,18,20,22,24,-1,-1,26,-1,28,30,32,34,-1,-1,36,-1,-1,-1,-1,-1,-1,-1,-1,-1,-1,-1,-1,-1],"split_conditions":[5.7E0,1.7E0,4.8E1,1.15E-1,3.4E0,1.08E1,4.3982487E-2,4.6E1,1E0,2.9E0,1E0,1.07E1,3.1E1,-6.8713026E-3,-9.356153E-3,7E-1,-6.5062875E-3,2.5E1,3.5E1,-5.2E1,4.5E0,1.2383426E-2,1.0750771E-3,-8.2E1,2.396925E-2,-5.6426865E-3,-2.9030396E-3,-4.4545373E-3,-1.4109429E-3,-1.4947981E-3,9.5056894E-4,1.0240835E-3,4.2658905E-3,2.6958797E-3,7.825192E-3,7.3651792E-3,1.6496211E-2],"split_indices":[2,2,1,2,2,2,0,1,13,2,8,2,1,0,0,2,0,1,1,0,2,0,0,0,0,0,0,0,0,0,0,0,0,0,0,0,0],"split_type":[0,0,0,0,0,0,0,0,0,0,0,0,0,0,0,0,0,0,0,0,0,0,0,0,0,0,0,0,0,0,0,0,0,0,0,0,0],"sum_hessian":[3.2E2,2.68E2,5.2E1,1.65E2,1.03E2,4.8E1,4E0,4.8E1,1.17E2,4.8E1,5.5E1,1.2E1,3.6E1,3.2E1,1.6E1,9.4E1,2.3E1,3E1,1.8E1,3.8E1,1.7E1,1.1E1,1E0,1.8E1,1.8E1,6.9E1,2.5E1,5E0,2.5E1,7E0,1.1E1,3.4E1,4E0,1.2E1,5E0,3E0,1.5E1],"tree_param":{"num_deleted":"0","num_feature":"14","num_nodes":"37","size_leaf_vector":"1"}},{"base_weights":[5.369847E-3,-2.9816052E-2,2.0129597E-1,-5.056087E-2,1.828125E-2,1.7422909E-1,4.0463887E-2,-5.6918424E-2,-2.5138143E-2,9.707958E-3,5.649964E-2,1.3904202E-1,2.0782182E-1,-8.066316E-3,-5.2279595E-2,-3.0392956E-2,-1.5356362E-2,2.0361554E-3,2.4963036E-2,9.216627E-3,4.3922756E-2,8.71548E-3,1.5084036E-1,4.992676E-3,2.1322025E-2,-4.7702244E-3,-6.334092E-3,-2.1890812E-3,-4.0957094E-3,-3.0579222E-3,3.6889018E-4,4.086111E-4,-4.61309E-3,1.6186305E-3,4.713273E-3,1.1538888E-3,5.7033487E-3,2.128851E-2,1.2010275E-2],"categories":[],"categories_nodes":[],"categories_segments":[],"categories_sizes":[],"default_left":[0,0,0,0,0,0,0,0,0,0,0,0,0,0,0,0,0,0,0,0,0,0,0,0,0,0,0,0,0,0,0,0,0,0,0,0,0,0,0],"id":39,"left_children":[1,3,5,7,9,11,-1,13,15,17,19,21,23,-1,25,27,29,31,33,-1,35,-1,37,-1,-1,-1,-1,-1,-1,-1,-1,-1,-1,-1,-1,-1,-1,-1,-1],"loss_changes":[2.2189233E0,2.7331543E-1,1.9918942E-1,2.9439807E-2,2.6647067E-2,2.429533E-2,0E0,1.2525439E-2,1.5893318E-3,8.024514E-3,2.6804283E-3,2.1581948E-3,7.2546005E-3,0E0,3.5606325E-3,1.3488624E-3,4.751578E-3,4.8292903E-3,3.7123784E-3,0E0,4.8613884E-3,0E0,1.0666907E-2,0E0,0E0,0E0,0E0,0E0,0E0,0E0,0E0,0E0,0E0,0E0,0E0,0E0,0E0,0E0,0E0],"parents":[2147483647,0,0,1,1,2,2,3,3,4,4,5,5,7,7,8,8,9,9,10,10,11,11,12,12,14,14,15,15,16,16,17,17,18,18,20,20,22,22],"right_children":[2,4,6,8,10,12,-1,14,16,18,20,22,24,-1,26,28,30,32,34,-1,36,-1,38,-1,-1,-1,-1,-1,-1,-1,-1,-1,-1,-1,-1,-1,-1,-1,-1],"split_conditions":[6.1E0,2.7E0,4.8E1,1.1E0,4.8E0,3.1E1,4.0463887E-2,5E-2,8.5E-1,8.5E-1,-7.4E1,7.5E-1,6.2E0,-8.066316E-3,1E0,-9.6E1,-1.01E2,-5.8E1,-7.9E1,9.216627E-3,-5.2E1,8.71548E-3,-7E1,4.992676E-3,2.1322025E-2,-4.7702244E-3,-6.334092E-3,-2.1890812E-3,-4.0957094E-3,-3.0579222E-3,3.6889018E-4,4.086111E-4,-4.61309E-3,1.6186305E-3,4.713273E-3,1.1538888E-3,5.7033487E-3,2.128851E-2,1.2010275E-2],"split_indices":[2,2,1,2,2,1,0,2,3,3,0,3,2,0,13,0,0,0,0,0,0,0,0,0,0,0,0,0,0,0,0,0,0,0,0,0,0,0,0],"split_type":[0,0,0,0,0,0,0,0,0,0,0,0,0,0,0,0,0,0,0,0,0,0,0,0,0,0,0,0,0,0,0,0,0,0,0,0,0,0,0],"sum_hessian":[3.2E2,2.72E2,4.8E1,1.9E2,8.2E1,4.4E1,4E0,1.51E2,3.9E1,6.8E1,1.4E1,2.4E1,2E1,2.2E1,1.29E2,2.4E1,1.5E1,4.6E1,2.2E1,2E0,1.2E1,6E0,1.8E1,1E0,1.9E1,9.5E1,3.4E1,1.5E1,9E0,8E0,7E0,4.5E1,1E0,1.7E1,5E0,4E0,8E0,4E0,1.4E1],"tree_param":{"num_deleted":"0","num_feature":"14","num_nodes":"39","size_leaf_vector":"1"}},{"base_weights":[5.140768E-3,-2.687088E-2,1.8338646E-1,-4.565213E-2,1.6672367E-2,1.5832436E-1,3.722681E-2,-5.462651E-2,-3.0397289E-2,8.767954E-3,5.1921178E-2,8.087172E-3,1.6816652E-1,-7.6449686E-3,-5.0239805E-3,-2.3829957E-2,-6.1795387E-2,1.7430427E-3,2.2741992E-2,8.602175E-3,4.005788E-2,2.4579239E-1,1.4660446E-1,-2.7647985E-3,1.0118544E-3,-7.091014E-3,-2.5838346E-3,3.6863453E-4,-4.3824436E-3,1.4657484E-3,4.3205186E-3,1.061573E-3,5.1963753E-3,5.6478977E-3,2.6793147E-2,5.152764E-3,1.6582422E-2],"categories":[],"categories_nodes":[],"categories_segments":[],"categories_sizes":[],"default_left":[0,0,0,0,0,0,0,0,0,0,0,0,0,0,0,0,0,0,0,0,0,0,0,0,0,0,0,0,0,0,0,0,0,0,0,0,0],"id":40,"left_children":[1,3,5,7,9,11,-1,13,15,17,19,-1,21,-1,-1,23,25,27,29,-1,31,33,35,-1,-1,-1,-1,-1,-1,-1,-1,-1,-1,-1,-1,-1,-1],"loss_changes":[1.8365339E0,2.240196E-1,1.7301571E-1,2.4487913E-2,2.2670314E-2,2.0703673E-2,0E0,7.5512826E-3,1.3580136E-2,6.733839E-3,2.6223324E-3,0E0,2.9242873E-2,0E0,0E0,8.3159655E-3,2.1006763E-3,4.323467E-3,3.1717215E-3,0E0,4.0053166E-3,1.4206082E-2,5.175811E-2,0E0,0E0,0E0,0E0,0E0,0E0,0E0,0E0,0E0,0E0,0E0,0E0,0E0,0E0],"parents":[2147483647,0,0,1,1,2,2,3,3,4,4,5,5,7,7,8,8,9,9,10,10,12,12,15,15,16,16,17,17,18,18,20,20,21,21,22,22],"right_children":[2,4,6,8,10,12,-1,14,16,18,20,-1,22,-1,-1,24,26,28,30,-1,32,34,36,-1,-1,-1,-1,-1,-1,-1,-1,-1,-1,-1,-1,-1,-1],"split_conditions":[6.1E0,2.7E0,4.8E1,6.3E-1,4.8E0,-7.8E1,3.722681E-2,2E-2,1E0,8.5E-1,-7.4E1,8.087172E-3,-7E1,-7.6449686E-3,-5.0239805E-3,-5.9E1,1.2E0,-5.8E1,-7.9E1,8.602175E-3,-5.2E1,1.02E1,1.12E1,-2.7647985E-3,1.0118544E-3,-7.091014E-3,-2.5838346E-3,3.6863453E-4,-4.3824436E-3,1.4657484E-3,4.3205186E-3,1.061573E-3,5.1963753E-3,5.6478977E-3,2.6793147E-2,5.152764E-3,1.6582422E-2],"split_indices":[2,2,1,2,2,0,0,2,13,3,0,0,0,0,0,0,2,0,0,0,0,2,2,0,0,0,0,0,0,0,0,0,0,0,0,0,0],"split_type":[0,0,0,0,0,0,0,0,0,0,0,0,0,0,0,0,0,0,0,0,0,0,0,0,0,0,0,0,0,0,0,0,0,0,0,0,0],"sum_hessian":[3.2E2,2.72E2,4.8E1,1.9E2,8.2E1,4.4E1,4E0,1.18E2,7.2E1,6.8E1,1.4E1,6E0,3.8E1,1.7E1,1.01E2,6.1E1,1.1E1,4.6E1,2.2E1,2E0,1.2E1,6E0,3.2E1,5.5E1,6E0,8E0,3E0,4.5E1,1E0,1.7E1,5E0,4E0,8E0,1E0,5E0,6E0,2.6E1],"tree_param":{"num_deleted":"0","num_feature":"14","num_nodes":"37","size_leaf_vector":"1"}},{"base_weights":[4.9133603E-3,-2.4211144E-2,1.6707818E-1,-4.052426E-2,1.7091183E-2,1.438755E-1,3.4248676E-2,-4.6508964E-2,-1.9408705E-2,9.645581E-3,4.771967E-2,1.13978654E-1,1.7261575E-1,-5.8372647E-2,-4.0121153E-2,-2.4630206E-2,-1.020811E-2,3.1676455E-3,2.2759086E-2,8.028698E-3,3.6533393E-2,5.5525783E-3,1.1942561E-2,1.799998E-2,6.8311538E-3,-5.1222355E-3,-7.0812516E-3,-3.7050296E-3,-5.239348E-3,-1.7572213E-3,-3.2576513E-3,-2.7363643E-3,3.1966515E-4,5.177736E-4,-4.163313E-3,1.5019551E-3,3.9604665E-3,1.5909126E-3,5.1938603E-3],"categories":[],"categories_nodes":[],"categories_segments":[],"categories_sizes":[],"default_left":[0,0,0,0,0,0,0,0,0,0,0,0,0,0,0,0,0,0,0,0,0,0,0,0,0,0,0,0,0,0,0,0,0,0,0,0,0,0,0],"id":41,"left_children":[1,3,5,7,9,11,-1,13,15,17,19,21,23,25,27,29,31,33,35,-1,37,-1,-1,-1,-1,-1,-1,-1,-1,-1,-1,-1,-1,-1,-1,-1,-1,-1,-1],"loss_changes":[1.5201185E0,1.846317E-1,1.501522E-1,2.3865938E-2,1.7327422E-2,1.8991351E-2,0E0,9.177029E-3,1.9104127E-3,5.3646076E-3,2.5314465E-3,1.3285577E-3,3.8779378E-3,9.0919435E-4,1.9028336E-3,9.979382E-4,4.2268573E-3,4.1779247E-3,2.143072E-3,0E0,3.3040773E-3,0E0,0E0,0E0,0E0,0E0,0E0,0E0,0E0,0E0,0E0,0E0,0E0,0E0,0E0,0E0,0E0,0E0,0E0],"parents":[2147483647,0,0,1,1,2,2,3,3,4,4,5,5,7,7,8,8,9,9,10,10,11,11,12,12,13,13,14,14,15,15,16,16,17,17,18,18,20,20],"right_children":[2,4,6,8,10,12,-1,14,16,18,20,22,24,26,28,30,32,34,36,-1,38,-1,-1,-1,-1,-1,-1,-1,-1,-1,-1,-1,-1,-1,-1,-1,-1,-1,-1],"split_conditions":[6.1E0,2.9E0,4.8E1,1.1E0,4.8E0,3.1E1,3.4248676E-2,1.25E-1,8.5E-1,8.5E-1,-7.4E1,-8.2E1,-4.3E1,4.7E1,-5.3E1,-9.4E1,-1.02E2,-5.8E1,-7.9E1,8.028698E-3,-5E1,5.5525783E-3,1.1942561E-2,1.799998E-2,6.8311538E-3,-5.1222355E-3,-7.0812516E-3,-3.7050296E-3,-5.239348E-3,-1.7572213E-3,-3.2576513E-3,-2.7363643E-3,3.1966515E-4,5.177736E-4,-4.163313E-3,1.5019551E-3,3.9604665E-3,1.5909126E-3,5.1938603E-3],"split_indices":[2,2,1,2,2,1,0,2,3,3,0,0,0,1,0,0,0,0,0,0,0,0,0,0,0,0,0,0,0,0,0,0,0,0,0,0,0,0,0],"split_type":[0,0,0,0,0,0,0,0,0,0,0,0,0,0,0,0,0,0,0,0,0,0,0,0,0,0,0,0,0,0,0,0,0,0,0,0,0,0,0],"sum_hessian":[3.2E2,2.72E2,4.8E1,1.95E2,7.7E1,4.4E1,4E0,1.51E2,4.4E1,6.3E1,1.4E1,2.4E1,2E1,5E1,1.01E2,2.7E1,1.7E1,4.3E1,2E1,2E0,1.2E1,3E0,2.1E1,1.8E1,2E0,3.5E1,1.5E1,8.4E1,1.7E1,1.6E1,1.1E1,7E0,1E1,4.2E1,1E0,1.5E1,5E0,6E0,6E0],"tree_param":{"num_deleted":"0","num_feature":"14","num_nodes":"39","size_leaf_vector":"1"}},{"base_weights":[4.6233437E-3,-2.3097867E-2,1.4523433E-1,-4.067084E-2,5.173392E-3,1.21156216E-1,2.8615395E-2,-5.101467E-2,-3.4013797E-2,-5.8033466E-3,2.2881258E-2,7.866217E-2,1.334781E-1,-4.574547E-3,-6.4826407E-3,-3.0843927E-2,-4.744519E-3,-2.4917655E-2,-2.6834847E-3,-5.33935E-3,2.8018404E-2,8.594064E-3,-4.3396952E-4,5.136156E-2,1.3957149E-1,-3.6022724E-3,1.80415E-3,-1.5030589E-5,-7.440225E-3,-1.7697475E-3,3.607279E-4,8.44574E-4,-9.044488E-4,4.088623E-3,1.0986716E-3,6.7574503E-3,2.3432414E-3,2.338976E-2,1.1774285E-2],"categories":[],"categories_nodes":[],"categories_segments":[],"categories_sizes":[],"default_left":[0,0,0,0,0,0,0,0,0,0,0,0,0,0,0,0,0,0,0,0,0,0,0,0,0,0,0,0,0,0,0,0,0,0,0,0,0,0,0],"id":42,"left_children":[1,3,5,7,9,11,-1,13,15,17,19,21,23,-1,-1,25,-1,27,29,31,33,-1,-1,35,37,-1,-1,-1,-1,-1,-1,-1,-1,-1,-1,-1,-1,-1,-1],"loss_changes":[1.2545829E0,1.3385229E-1,1.4516377E-1,9.6954405E-3,2.0347748E-2,1.410985E-2,0E0,1.6194135E-3,2.9644892E-3,3.809344E-3,5.9485342E-3,8.226588E-3,1.0344207E-2,0E0,0E0,2.26755E-2,0E0,1.1019237E-2,5.447459E-3,4.3391704E-4,7.0022643E-3,0E0,0E0,2.2782106E-4,3.8348615E-2,0E0,0E0,0E0,0E0,0E0,0E0,0E0,0E0,0E0,0E0,0E0,0E0,0E0,0E0],"parents":[2147483647,0,0,1,1,2,2,3,3,4,4,5,5,7,7,8,8,9,9,10,10,11,11,12,12,15,15,17,17,18,18,19,19,20,20,23,23,24,24],"right_children":[2,4,6,8,10,12,-1,14,16,18,20,22,24,-1,-1,26,-1,28,30,32,34,-1,-1,36,38,-1,-1,-1,-1,-1,-1,-1,-1,-1,-1,-1,-1,-1,-1],"split_conditions":[5.7E0,1.7E0,1.38E1,3E-1,3.9E0,1.08E1,2.8615395E-2,4.8E1,-5.3E1,-1.02E2,-8.8E1,1.07E1,-8.2E1,-4.574547E-3,-6.4826407E-3,-5.9E1,-4.744519E-3,-1.03E2,2.5E1,-9E1,-7.4E1,8.594064E-3,-4.3396952E-4,-8.3E1,-7.1E1,-3.6022724E-3,1.80415E-3,-1.5030589E-5,-7.440225E-3,-1.7697475E-3,3.607279E-4,8.44574E-4,-9.044488E-4,4.088623E-3,1.0986716E-3,6.7574503E-3,2.3432414E-3,2.338976E-2,1.1774285E-2],"split_indices":[2,2,2,2,2,2,0,1,0,0,0,2,0,0,0,0,0,0,1,0,0,0,0,0,0,0,0,0,0,0,0,0,0,0,0,0,0,0,0],"split_type":[0,0,0,0,0,0,0,0,0,0,0,0,0,0,0,0,0,0,0,0,0,0,0,0,0,0,0,0,0,0,0,0,0,0,0,0,0,0,0],"sum_hessian":[3.2E2,2.68E2,5.2E1,1.65E2,1.03E2,4.6E1,6E0,6.2E1,1.03E2,6.4E1,3.9E1,1.2E1,3.4E1,4.8E1,1.4E1,8.6E1,1.7E1,8E0,5.6E1,6E0,3.3E1,1.1E1,1E0,3E0,3.1E1,7.8E1,8E0,6E0,2E0,1.6E1,4E1,1E0,5E0,1.8E1,1.5E1,1E0,2E0,4E0,2.7E1],"tree_param":{"num_deleted":"0","num_feature":"14","num_nodes":"39","size_leaf_vector":"1"}},{"base_weights":[4.347033E-3,-1.9761931E-2,1.385797E-1,-3.3172637E-2,1.4190123E-2,1.1843165E-1,2.921961E-2,-3.8003094E-2,-1.611925E-2,7.7990666E-3,4.0512625E-2,9.312736E-2,1.429162E-1,-5.2994383E-3,-3.4341022E-2,-2.0514028E-2,-8.387413E-3,9.195903E-3,-4.0100813E-3,6.3797473E-3,2.6245637E-2,5.90101E-3,1.0079545E-1,3.714156E-3,1.4634785E-2,-3.0347274E-3,-4.3743607E-3,-1.6396834E-3,-3.2877605E-3,-2.1318397E-3,4.0892125E-4,3.7941E-4,2.2489629E-3,-4.1071177E-3,3.7084438E-3,1.5759697E-2,7.514191E-3],"categories":[],"categories_nodes":[],"categories_segments":[],"categories_sizes":[],"default_left":[0,0,0,0,0,0,0,0,0,0,0,0,0,0,0,0,0,0,0,0,0,0,0,0,0,0,0,0,0,0,0,0,0,0,0,0,0],"id":43,"left_children":[1,3,5,7,9,11,-1,13,15,17,19,21,23,-1,25,27,29,31,-1,-1,33,-1,35,-1,-1,-1,-1,-1,-1,-1,-1,-1,-1,-1,-1,-1,-1],"loss_changes":[1.0415621E0,1.24773376E-1,1.1705315E-1,1.553303E-2,1.2805872E-2,1.4570951E-2,0E0,6.5248013E-3,1.3570264E-3,4.650894E-3,3.3086631E-3,5.9239566E-4,2.1869838E-3,0E0,3.3664554E-3,8.862028E-4,2.9912062E-3,4.4387067E-3,0E0,0E0,9.54907E-3,0E0,1.5843913E-2,0E0,0E0,0E0,0E0,0E0,0E0,0E0,0E0,0E0,0E0,0E0,0E0,0E0,0E0],"parents":[2147483647,0,0,1,1,2,2,3,3,4,4,5,5,7,7,8,8,9,9,10,10,11,11,12,12,14,14,15,15,16,16,17,17,20,20,22,22],"right_children":[2,4,6,8,10,12,-1,14,16,18,20,22,24,-1,26,28,30,32,-1,-1,34,-1,36,-1,-1,-1,-1,-1,-1,-1,-1,-1,-1,-1,-1,-1,-1],"split_conditions":[6.1E0,2.9E0,4.8E1,1.1E0,4.8E0,3.1E1,2.921961E-2,8E-2,8.5E-1,-5.8E1,-5.4E1,-7.8E1,6.2E0,-5.2994383E-3,1E0,1E0,-1.01E2,4.1E0,-4.0100813E-3,6.3797473E-3,-5.3E1,5.90101E-3,-7E1,3.714156E-3,1.4634785E-2,-3.0347274E-3,-4.3743607E-3,-1.6396834E-3,-3.2877605E-3,-2.1318397E-3,4.0892125E-4,3.7941E-4,2.2489629E-3,-4.1071177E-3,3.7084438E-3,1.5759697E-2,7.514191E-3],"split_indices":[2,2,1,2,2,1,0,2,3,0,0,0,2,0,13,7,0,2,0,0,0,0,0,0,0,0,0,0,0,0,0,0,0,0,0,0,0],"split_type":[0,0,0,0,0,0,0,0,0,0,0,0,0,0,0,0,0,0,0,0,0,0,0,0,0,0,0,0,0,0,0,0,0,0,0,0,0],"sum_hessian":[3.2E2,2.72E2,4.8E1,1.95E2,7.7E1,4.4E1,4E0,1.51E2,4.4E1,6.3E1,1.4E1,2.4E1,2E1,2.7E1,1.24E2,2.7E1,1.7E1,6.2E1,1E0,4E0,1E1,6E0,1.8E1,1E0,1.9E1,9E1,3.4E1,2.2E1,5E0,8E0,9E0,4.5E1,1.7E1,1E0,9E0,4E0,1.4E1],"tree_param":{"num_deleted":"0","num_feature":"14","num_nodes":"37","size_leaf_vector":"1"}},{"base_weights":[4.1054287E-3,-1.7839786E-2,1.2628783E-1,-2.9954143E-2,1.2830135E-2,1.0934843E-1,2.8951908E-2,-4.0335774E-2,-2.3185894E-2,6.9976225E-3,3.686018E-2,8.498169E-2,1.3206753E-1,-5.194976E-3,-3.610887E-2,-2.5997782E-2,-6.7221867E-3,8.318083E-3,-3.8095713E-3,5.869379E-3,2.3584886E-2,5.6084516E-3,9.310368E-2,5.191183E-3,1.374875E-2,-7.1270316E-4,-3.6485677E-3,-2.3044946E-3,-3.958008E-3,-1.9423366E-3,4.2807948E-4,1.9849754E-4,1.786501E-3,-3.9017678E-3,3.374691E-3,1.6348338E-2,6.812884E-3],"categories":[],"categories_nodes":[],"categories_segments":[],"categories_sizes":[],"default_left":[0,0,0,0,0,0,0,0,0,0,0,0,0,0,0,0,0,0,0,0,0,0,0,0,0,0,0,0,0,0,0,0,0,0,0,0,0],"id":44,"left_children":[1,3,5,7,9,11,-1,13,15,17,19,21,23,-1,25,27,29,31,-1,-1,33,-1,35,-1,-1,-1,-1,-1,-1,-1,-1,-1,-1,-1,-1,-1,-1],"loss_changes":[8.629564E-1,1.0181649E-1,1.0382849E-1,1.2836814E-2,1.0674198E-2,1.4241874E-2,0E0,1.8550754E-3,5.426824E-3,4.1276994E-3,2.9634275E-3,6.4589083E-4,2.420485E-3,0E0,3.842786E-4,3.2188222E-3,2.7384134E-3,3.7736255E-3,0E0,0E0,8.314582E-3,0E0,2.0501062E-2,0E0,0E0,0E0,0E0,0E0,0E0,0E0,0E0,0E0,0E0,0E0,0E0,0E0,0E0],"parents":[2147483647,0,0,1,1,2,2,3,3,4,4,5,5,7,7,8,8,9,9,10,10,11,11,12,12,14,14,15,15,16,16,17,17,20,20,22,22],"right_children":[2,4,6,8,10,12,-1,14,16,18,20,22,24,-1,26,28,30,32,-1,-1,34,-1,36,-1,-1,-1,-1,-1,-1,-1,-1,-1,-1,-1,-1,-1,-1],"split_conditions":[6.1E0,2.9E0,4.9E1,4.1E-1,4.8E0,3.1E1,2.8951908E-2,2E-2,8.5E-1,-5.8E1,-5.4E1,-7.3E1,1E1,-5.194976E-3,-1.22E2,1E0,-1.01E2,4E0,-3.8095713E-3,5.869379E-3,-5.3E1,5.6084516E-3,-7E1,5.191183E-3,1.374875E-2,-7.1270316E-4,-3.6485677E-3,-2.3044946E-3,-3.958008E-3,-1.9423366E-3,4.2807948E-4,1.9849754E-4,1.786501E-3,-3.9017678E-3,3.374691E-3,1.6348338E-2,6.812884E-3],"split_indices":[2,2,1,2,2,1,0,2,3,0,0,0,2,0,0,13,0,2,0,0,0,0,0,0,0,0,0,0,0,0,0,0,0,0,0,0,0],"split_type":[0,0,0,0,0,0,0,0,0,0,0,0,0,0,0,0,0,0,0,0,0,0,0,0,0,0,0,0,0,0,0,0,0,0,0,0,0],"sum_hessian":[3.2E2,2.72E2,4.8E1,1.95E2,7.7E1,4.5E1,3E0,7.5E1,1.2E2,6.3E1,1.4E1,2.4E1,2.1E1,1.7E1,5.8E1,1.02E2,1.8E1,6.2E1,1E0,4E0,1E1,7E0,1.7E1,2E0,1.9E1,1E0,5.7E1,8.6E1,1.6E1,8E0,1E1,3.8E1,2.4E1,1E0,9E0,3E0,1.4E1],"tree_param":{"num_deleted":"0","num_feature":"14","num_nodes":"37","size_leaf_vector":"1"}},{"base_weights":[3.8906336E-3,-1.6106423E-2,1.1522341E-1,-2.704715E-2,1.159215E-2,9.945056E-2,2.6780535E-2,-3.106767E-2,-1.2865678E-2,6.2692463E-3,3.3530395E-2,7.763424E-2,1.19721346E-1,-4.3427055E-3,-2.8050626E-2,-1.9596295E-2,-8.4764995E-3,7.517678E-3,-3.6190988E-3,6.4043044E-3,2.3909751E-2,5.1177028E-3,8.507999E-2,1.8548489E-2,1.0387075E-1,-2.4744999E-3,-3.5843812E-3,-8.8552956E-4,-6.6769207E-3,-1.771807E-3,1.330169E-4,2.9870323E-4,1.8678347E-3,2.9006958E-4,3.2924812E-3,1.5122247E-2,6.177E-3,6.5960498E-3,1.3518496E-2],"categories":[],"categories_nodes":[],"categories_segments":[],"categories_sizes":[],"default_left":[0,0,0,0,0,0,0,0,0,0,0,0,0,0,0,0,0,0,0,0,0,0,0,0,0,0,0,0,0,0,0,0,0,0,0,0,0,0,0],"id":45,"left_children":[1,3,5,7,9,11,-1,13,15,17,19,21,23,-1,25,27,29,31,-1,-1,33,-1,35,-1,37,-1,-1,-1,-1,-1,-1,-1,-1,-1,-1,-1,-1,-1,-1],"loss_changes":[7.165071E-1,8.304413E-2,9.129256E-2,1.0775611E-2,8.898251E-3,1.1048287E-2,0E0,4.44974E-3,1.1632764E-3,3.66463E-3,2.8720163E-3,5.706996E-4,3.6661625E-3,0E0,2.3332164E-3,8.022372E-3,2.6518088E-3,3.1298047E-3,0E0,0E0,2.3666685E-3,0E0,1.8411055E-2,0E0,1.48257315E-2,0E0,0E0,0E0,0E0,0E0,0E0,0E0,0E0,0E0,0E0,0E0,0E0,0E0,0E0],"parents":[2147483647,0,0,1,1,2,2,3,3,4,4,5,5,7,7,8,8,9,9,10,10,11,11,12,12,14,14,15,15,16,16,17,17,20,20,22,22,24,24],"right_children":[2,4,6,8,10,12,-1,14,16,18,20,22,24,-1,26,28,30,32,-1,-1,34,-1,36,-1,38,-1,-1,-1,-1,-1,-1,-1,-1,-1,-1,-1,-1,-1,-1],"split_conditions":[6.1E0,2.9E0,4.9E1,1.1E0,4.8E0,3.1E1,2.6780535E-2,8E-2,-1.02E2,-5.8E1,-7.4E1,-7.3E1,-7.5E1,-4.3427055E-3,1E0,-1.03E2,4.1E1,4.1E0,-3.6190988E-3,6.4043044E-3,-5.2E1,5.1177028E-3,-7E1,1.8548489E-2,1.32E1,-2.4744999E-3,-3.5843812E-3,-8.8552956E-4,-6.6769207E-3,-1.771807E-3,1.330169E-4,2.9870323E-4,1.8678347E-3,2.9006958E-4,3.2924812E-3,1.5122247E-2,6.177E-3,6.5960498E-3,1.3518496E-2],"split_indices":[2,2,1,2,2,1,0,2,0,0,0,0,0,0,13,0,1,2,0,0,0,0,0,0,2,0,0,0,0,0,0,0,0,0,0,0,0,0,0],"split_type":[0,0,0,0,0,0,0,0,0,0,0,0,0,0,0,0,0,0,0,0,0,0,0,0,0,0,0,0,0,0,0,0,0,0,0,0,0,0,0],"sum_hessian":[3.2E2,2.72E2,4.8E1,1.95E2,7.7E1,4.5E1,3E0,1.51E2,4.4E1,6.3E1,1.4E1,2.4E1,2.1E1,2.7E1,1.24E2,1.6E1,2.8E1,6.2E1,1E0,2E0,1.2E1,7E0,1.7E1,2E0,1.9E1,9E1,3.4E1,1.4E1,2E0,1.4E1,1.4E1,4.5E1,1.7E1,4E0,8E0,3E0,1.4E1,1E1,9E0],"tree_param":{"num_deleted":"0","num_feature":"14","num_nodes":"39","size_leaf_vector":"1"}},{"base_weights":[3.7532882E-3,-1.5409786E-2,1.0094412E-1,-2.7095625E-2,3.390782E-3,8.718314E-2,2.4772024E-2,-3.4374546E-2,-2.2539545E-2,-7.094174E-3,1.2504569E-2,5.156741E-2,9.7073175E-2,-3.0360466E-2,-4.4927965E-3,-1.9660918E-2,-3.5360628E-3,-2.0590723E-2,-2.6454173E-3,6.7366576E-3,2.4307013E-2,5.826048E-3,-1.4374733E-3,5.96179E-2,1.0664144E-1,-3.0640906E-3,-8.5899123E-4,-2.4257635E-3,2.3383312E-3,-3.9098444E-3,-1.0077212E-3,-1.2253849E-3,6.614864E-4,-1.4257064E-4,1.041718E-3,1.6137868E-3,5.9773447E-3,3.0652592E-3,9.540272E-3,2.3394823E-3,1.1534702E-2],"categories":[],"categories_nodes":[],"categories_segments":[],"categories_sizes":[],"default_left":[0,0,0,0,0,0,0,0,0,0,0,0,0,0,0,0,0,0,0,0,0,0,0,0,0,0,0,0,0,0,0,0,0,0,0,0,0,0,0,0,0],"id":46,"left_children":[1,3,5,7,9,11,-1,13,15,17,19,21,23,25,-1,27,-1,29,31,33,35,-1,-1,37,39,-1,-1,-1,-1,-1,-1,-1,-1,-1,-1,-1,-1,-1,-1,-1,-1],"loss_changes":[5.9941006E-1,5.9191287E-2,8.5451424E-2,4.730329E-3,1.0026706E-2,1.2606204E-2,0E0,1.2624264E-3,3.180027E-3,2.887629E-3,3.6484767E-3,6.5751E-3,7.2607994E-3,2.9850751E-5,0E0,1.7979082E-2,0E0,1.9409703E-3,3.4621751E-3,1.1864803E-3,4.250532E-3,0E0,0E0,7.4408427E-3,1.8318057E-2,0E0,0E0,0E0,0E0,0E0,0E0,0E0,0E0,0E0,0E0,0E0,0E0,0E0,0E0,0E0,0E0],"parents":[2147483647,0,0,1,1,2,2,3,3,4,4,5,5,7,7,8,8,9,9,10,10,11,11,12,12,13,13,15,15,17,17,18,18,19,19,20,20,23,23,24,24],"right_children":[2,4,6,8,10,12,-1,14,16,18,20,22,24,26,-1,28,-1,30,32,34,36,-1,-1,38,40,-1,-1,-1,-1,-1,-1,-1,-1,-1,-1,-1,-1,-1,-1,-1,-1],"split_conditions":[5.7E0,1.7E0,4.9E1,2E-1,3.4E0,1.08E1,2.4772024E-2,4.8E1,-5.3E1,2.5E1,1E0,1.07E1,2.7E1,1E0,-4.4927965E-3,-5.9E1,-3.5360628E-3,-7.6E1,8E-1,-8.5E1,4.8E0,5.826048E-3,-1.4374733E-3,1.13E1,-7.9E1,-3.0640906E-3,-8.5899123E-4,-2.4257635E-3,2.3383312E-3,-3.9098444E-3,-1.0077212E-3,-1.2253849E-3,6.614864E-4,-1.4257064E-4,1.041718E-3,1.6137868E-3,5.9773447E-3,3.0652592E-3,9.540272E-3,2.3394823E-3,1.1534702E-2],"split_indices":[2,2,1,2,2,2,0,1,0,1,8,2,1,12,0,0,0,0,3,0,2,0,0,2,0,0,0,0,0,0,0,0,0,0,0,0,0,0,0,0,0],"split_type":[0,0,0,0,0,0,0,0,0,0,0,0,0,0,0,0,0,0,0,0,0,0,0,0,0,0,0,0,0,0,0,0,0,0,0,0,0,0,0,0,0],"sum_hessian":[3.2E2,2.68E2,5.2E1,1.65E2,1.03E2,4.9E1,3E0,6.1E1,1.04E2,4.8E1,5.5E1,1.2E1,3.7E1,4.7E1,1.4E1,8.7E1,1.7E1,1.1E1,3.7E1,3.8E1,1.7E1,1.1E1,1E0,9E0,2.8E1,4.6E1,1E0,7.9E1,8E0,3E0,8E0,1.8E1,1.9E1,1.2E1,2.6E1,1.5E1,2E0,6E0,3E0,3E0,2.5E1],"tree_param":{"num_deleted":"0","num_feature":"14","num_nodes":"41","size_leaf_vector":"1"}},{"base_weights":[3.5231826E-3,-1.3136344E-2,9.626865E-2,-2.2107756E-2,9.5756175E-3,8.2621686E-2,2.2914147E-2,-2.5372833E-2,-1.0587764E-2,5.122572E-3,2.7936904E-2,6.319208E-2,9.779916E-2,-3.893687E-3,-2.337635E-2,-1.680729E-2,-6.5767397E-3,6.3118935E-3,-3.4902336E-3,4.8512938E-3,1.6044443E-2,8.234854E-2,4.499517E-2,1.0322798E-1,4.4848085E-3,-2.561176E-3,-1.505073E-3,-6.6222827E-4,-6.21299E-3,-1.9280821E-3,-1.6581308E-4,-5.2502303E-4,1.0034437E-3,-3.7732602E-3,2.519541E-3,4.2783977E-3,1.6040452E-2,-9.518242E-4,6.775236E-3,1.6542943E-2,8.797365E-3],"categories":[],"categories_nodes":[],"categories_segments":[],"categories_sizes":[],"default_left":[0,0,0,0,0,0,0,0,0,0,0,0,0,0,0,0,0,0,0,0,0,0,0,0,0,0,0,0,0,0,0,0,0,0,0,0,0,0,0,0,0],"id":47,"left_children":[1,3,5,7,9,11,-1,13,15,17,19,21,23,-1,25,27,29,31,-1,-1,33,35,37,39,-1,-1,-1,-1,-1,-1,-1,-1,-1,-1,-1,-1,-1,-1,-1,-1,-1],"loss_changes":[4.972403E-1,5.583773E-2,6.992015E-2,7.103637E-3,6.2344545E-3,7.3848963E-3,0E0,3.206022E-3,1.0120631E-3,3.266858E-3,2.892132E-3,4.312247E-3,2.2694916E-3,0E0,2.127029E-3,7.4359453E-3,1.7801358E-3,2.7642353E-3,0E0,0E0,6.363919E-3,2.401977E-2,1.8012892E-2,5.372256E-3,0E0,0E0,0E0,0E0,0E0,0E0,0E0,0E0,0E0,0E0,0E0,0E0,0E0,0E0,0E0,0E0,0E0],"parents":[2147483647,0,0,1,1,2,2,3,3,4,4,5,5,7,7,8,8,9,9,10,10,11,11,12,12,14,14,15,15,16,16,17,17,20,20,21,21,22,22,23,23],"right_children":[2,4,6,8,10,12,-1,14,16,18,20,22,24,-1,26,28,30,32,-1,-1,34,36,38,40,-1,-1,-1,-1,-1,-1,-1,-1,-1,-1,-1,-1,-1,-1,-1,-1,-1],"split_conditions":[6.1E0,2.9E0,4.9E1,1.1E0,4.8E0,3E1,2.2914147E-2,2E-2,-1.02E2,-5.8E1,-5.4E1,-7E1,8E-1,-3.893687E-3,-6.3E1,-1.03E2,2.5E1,2.8E1,-3.4902336E-3,4.8512938E-3,-5.3E1,-7.2E1,1.12E1,-7.5E1,4.4848085E-3,-2.561176E-3,-1.505073E-3,-6.6222827E-4,-6.21299E-3,-1.9280821E-3,-1.6581308E-4,-5.2502303E-4,1.0034437E-3,-3.7732602E-3,2.519541E-3,4.2783977E-3,1.6040452E-2,-9.518242E-4,6.775236E-3,1.6542943E-2,8.797365E-3],"split_indices":[2,2,1,2,2,1,0,2,0,0,0,0,3,0,0,0,1,1,0,0,0,0,2,0,0,0,0,0,0,0,0,0,0,0,0,0,0,0,0,0,0],"split_type":[0,0,0,0,0,0,0,0,0,0,0,0,0,0,0,0,0,0,0,0,0,0,0,0,0,0,0,0,0,0,0,0,0,0,0,0,0,0,0,0,0],"sum_hessian":[3.2E2,2.72E2,4.8E1,1.95E2,7.7E1,4.5E1,3E0,1.51E2,4.4E1,6.3E1,1.4E1,2.2E1,2.3E1,1.7E1,1.34E2,1.6E1,2.8E1,6.2E1,1E0,4E0,1E1,9E0,1.3E1,2E1,3E0,1.04E2,3E1,1.4E1,2E0,7E0,2.1E1,1.5E1,4.7E1,1E0,9E0,7E0,2E0,4E0,9E0,2E0,1.8E1],"tree_param":{"num_deleted":"0","num_feature":"14","num_nodes":"41","size_leaf_vector":"1"}},{"base_weights":[3.3656869E-3,-1.188257E-2,8.825157E-2,-1.998336E-2,8.625605E-3,7.557615E-2,2.1195604E-2,-2.7032973E-2,-1.5390353E-2,4.5633167E-3,2.5382996E-2,6.565701E-2,1.0471935E-2,-3.5587747E-3,-2.415857E-2,-1.3088292E-2,-3.0785697E-3,5.688357E-3,-3.3157112E-3,4.463186E-2,1.4325965E-2,9.838896E-2,4.6010114E-2,-3.039971E-4,-2.446499E-3,-1.6204354E-3,2.2642626E-3,-5.7802716E-4,8.7858055E-4,1.2611151E-3,4.9484256E-3,-3.5845996E-3,2.2927762E-3,3.795651E-3,1.4476585E-2,9.6793176E-4,5.697356E-3],"categories":[],"categories_nodes":[],"categories_segments":[],"categories_sizes":[],"default_left":[0,0,0,0,0,0,0,0,0,0,0,0,0,0,0,0,0,0,0,0,0,0,0,0,0,0,0,0,0,0,0,0,0,0,0,0,0],"id":48,"left_children":[1,3,5,7,9,11,-1,13,15,17,19,21,-1,-1,23,25,-1,27,-1,29,31,33,35,-1,-1,-1,-1,-1,-1,-1,-1,-1,-1,-1,-1,-1,-1],"loss_changes":[4.1653877E-1,4.5526523E-2,6.0813457E-2,5.93023E-3,5.193891E-3,6.4219236E-3,0E0,1.0090806E-3,3.8854275E-3,2.9045774E-3,2.5531352E-3,1.9267112E-2,0E0,0E0,3.1388924E-4,1.2280257E-2,0E0,2.2887639E-3,0E0,1.5283097E-4,5.5691274E-3,3.0939892E-2,9.40631E-3,0E0,0E0,0E0,0E0,0E0,0E0,0E0,0E0,0E0,0E0,0E0,0E0,0E0,0E0],"parents":[2147483647,0,0,1,1,2,2,3,3,4,4,5,5,7,7,8,8,9,9,10,10,11,11,14,14,15,15,17,17,19,19,20,20,21,21,22,22],"right_children":[2,4,6,8,10,12,-1,14,16,18,20,22,-1,-1,24,26,-1,28,-1,30,32,34,36,-1,-1,-1,-1,-1,-1,-1,-1,-1,-1,-1,-1,-1,-1],"split_conditions":[6.1E0,2.9E0,4.9E1,4.1E-1,4.8E0,1.32E1,2.1195604E-2,1E-2,-5.3E1,-5.8E1,-5.4E1,-7E1,1.0471935E-2,-3.5587747E-3,-1.22E2,-5.9E1,-3.0785697E-3,2.6E1,-3.3157112E-3,4.9E0,-5.3E1,-7.8E1,1.12E1,-3.039971E-4,-2.446499E-3,-1.6204354E-3,2.2642626E-3,-5.7802716E-4,8.7858055E-4,1.2611151E-3,4.9484256E-3,-3.5845996E-3,2.2927762E-3,3.795651E-3,1.4476585E-2,9.6793176E-4,5.697356E-3],"split_indices":[2,2,1,2,2,2,0,2,0,0,0,0,0,0,0,0,0,1,0,2,0,0,2,0,0,0,0,0,0,0,0,0,0,0,0,0,0],"split_type":[0,0,0,0,0,0,0,0,0,0,0,0,0,0,0,0,0,0,0,0,0,0,0,0,0,0,0,0,0,0,0,0,0,0,0,0,0],"sum_hessian":[3.2E2,2.72E2,4.8E1,1.95E2,7.7E1,4.5E1,3E0,7.5E1,1.2E2,6.3E1,1.4E1,3.6E1,9E0,1.6E1,5.9E1,1.06E2,1.4E1,6.2E1,1E0,4E0,1E1,1.2E1,2.4E1,1E0,5.8E1,9.8E1,8E0,1.3E1,4.9E1,1E0,3E0,1E0,9E0,6E0,6E0,6E0,1.8E1],"tree_param":{"num_deleted":"0","num_feature":"14","num_nodes":"37","size_leaf_vector":"1"}},{"base_weights":[3.1841209E-3,-1.0719393E-2,8.0581576E-2,-1.7333489E-2,9.875188E-3,6.8788245E-2,1.9605948E-2,-2.0837724E-2,-7.512465E-3,4.6843383E-3,2.3745589E-2,5.2269105E-2,8.175292E-2,-3.1340849E-3,-1.9101633E-2,-1.4005788E-2,-4.5649917E-3,-2.6637802E-3,1.2755792E-2,1.0903644E-3,2.6635886E-3,6.845713E-2,3.6972728E-2,1.16062544E-1,6.908786E-2,-1.6770222E-3,-2.5150434E-3,-4.4917106E-4,-5.6907577E-3,-1.0731443E-3,3.567974E-4,1.9016862E-4,-8.5290865E-4,2.394448E-3,-2.6439756E-4,3.3049106E-3,1.4005947E-2,-9.531212E-4,5.6527425E-3,2.5301457E-3,1.3242746E-2,-7.1547827E-4,7.795676E-3],"categories":[],"categories_nodes":[],"categories_segments":[],"categories_sizes":[],"default_left":[0,0,0,0,0,0,0,0,0,0,0,0,0,0,0,0,0,0,0,0,0,0,0,0,0,0,0,0,0,0,0,0,0,0,0,0,0,0,0,0,0,0,0],"id":49,"left_children":[1,3,5,7,9,11,-1,13,15,17,19,21,23,-1,25,27,29,31,33,-1,-1,35,37,39,41,-1,-1,-1,-1,-1,-1,-1,-1,-1,-1,-1,-1,-1,-1,-1,-1,-1,-1],"loss_changes":[3.462908E-1,3.735773E-2,5.3245008E-2,6.9673955E-3,4.7127116E-3,5.5784434E-3,0E0,2.1729693E-3,1.0078417E-3,2.999478E-3,3.7767738E-4,3.1641647E-3,2.4103075E-3,0E0,1.4538169E-3,6.6832937E-3,2.0443508E-3,7.392218E-4,4.1985856E-3,0E0,0E0,2.0724129E-2,1.3269961E-2,4.0758774E-3,1.4081515E-2,0E0,0E0,0E0,0E0,0E0,0E0,0E0,0E0,0E0,0E0,0E0,0E0,0E0,0E0,0E0,0E0,0E0,0E0],"parents":[2147483647,0,0,1,1,2,2,3,3,4,4,5,5,7,7,8,8,9,9,10,10,11,11,12,12,14,14,15,15,16,16,17,17,18,18,21,21,22,22,23,23,24,24],"right_children":[2,4,6,8,10,12,-1,14,16,18,20,22,24,-1,26,28,30,32,34,-1,-1,36,38,40,42,-1,-1,-1,-1,-1,-1,-1,-1,-1,-1,-1,-1,-1,-1,-1,-1,-1,-1],"split_conditions":[6.1E0,3.2E0,